{"learner":{"attributes":{"best_iteration":"99","best_ntree_limit":"100","scikit_learn":"{\"use_label_encoder\": false, \"n_estimators\": 100, \"objective\": \"binary:logistic\", \"max_depth\": null, \"max_leaves\": null, \"max_bin\": null, \"grow_policy\": null, \"learning_rate\": null, \"verbosity\": null, \"booster\": null, \"tree_method\": null, \"gamma\": null, \"min_child_weight\": null, \"max_delta_step\": null, \"subsample\": null, \"sampling_method\": null, \"colsample_bytree\": null, \"colsample_bylevel\": null, \"colsample_bynode\": null, \"reg_alpha\": null, \"reg_lambda\": null, \"scale_pos_weight\": null, \"base_score\": null, \"missing\": NaN, \"num_parallel_tree\": null, \"random_state\": 42, \"n_jobs\": null, \"monotone_constraints\": null, \"interaction_constraints\": null, \"importance_type\": null, \"gpu_id\": null, \"validate_parameters\": null, \"predictor\": null, \"enable_categorical\": false, \"feature_types\": null, \"max_cat_to_onehot\": null, \"max_cat_threshold\": null, \"eval_metric\": \"logloss\", \"early_stopping_rounds\": null, \"callbacks\": null, \"classes_\": [0, 1], \"n_classes_\": 2, \"_estimator_type\": \"classifier\"}"},"feature_names":["Gender","Age","Academic Pressure","CGPA","Study Satisfaction","Job Satisfaction","Sleep Duration","Have you ever had suicidal thoughts ?","Work/Study Hours","Financial Stress","Family History of Mental Illness"],"feature_types":["float","float","float","float","float","float","float","float","float","float","float"],"gradient_booster":{"model":{"gbtree_model_param":{"num_parallel_tree":"1","num_trees":"100","size_leaf_vector":"0"},"tree_info":[0,0,0,0,0,0,0,0,0,0,0,0,0,0,0,0,0,0,0,0,0,0,0,0,0,0,0,0,0,0,0,0,0,0,0,0,0,0,0,0,0,0,0,0,0,0,0,0,0,0,0,0,0,0,0,0,0,0,0,0,0,0,0,0,0,0,0,0,0,0,0,0,0,0,0,0,0,0,0,0,0,0,0,0,0,0,0,0,0,0,0,0,0,0,0,0,0,0,0,0],"trees":[{"base_weights":[2.0657205E-3,-1.2901732E0,9.1112846E-1,-1.6180929E0,-2.6478443E-1,-3.421829E-1,1.3626374E0,-1.7760605E0,-1.2257518E0,-9.6183205E-1,3.042877E-1,-1.1808118E0,2.1586263E-1,7.7668715E-1,1.5999004E0,-1.8638211E0,-1.5896351E0,-1.5223097E0,-6.825208E-1,-3.241895E-1,-1.2838875E0,-6.465068E-2,1.0224032E0,-1.4248649E0,-8.5390073E-1,-2.8324696E-1,6.625387E-1,9.2404075E-2,1.2148968E0,1.3113753E0,1.7656772E0,-1.9106296E0,-1.7160244E0,-1.3108348E0,-1.7027028E0,-1.2353982E0,-1.6843199E0,1.21951215E-2,-1.1179883E0,-7.022222E-1,1.5555556E-1,-6.2068963E-1,-1.3910447E0,8.2E-1,-2.961992E-1,1.2480417E0,2.1428572E-1,-1.2959502E0,-1.6933798E0,-2.923077E-1,-1.1714922E0,-6.1124694E-1,5E-1,7.922078E-1,-1.875E0,7.254509E-1,-3.1202045E-1,1.4987384E0,7.880299E-1,1.3650794E0,-1.8431373E0,1.5728451E0,1.8306879E0,-7.692308E-1,-1.7344398E0,-1.6153846E0,-1.0358306E0,-1.7404704E0,-1.184466E0,-1.5530086E0,-7.090909E-1,-1.8233216E0,-1.4713217E0,-4.4705883E-1,4.9382716E-1,-1.3811321E0,-8.28125E-1,-1.2808989E0,-3.1428573E-1,9.019608E-1,-1.3533835E-1,-9.589041E-1,-4.255319E-2,-1.1304348E0,-1.6136364E0,1.107438E0,3.6144578E-1,-7.1834624E-1,1.368421E-1,3.3333334E-1,1.2947658E0,4.2424244E-1,-1.0588236E0,-1.4731183E0,-1.0364964E0,-7.0198673E-1,2.6548672E-1,-1.4634146E-1,-1.2621359E0,-1.2355555E0,-3.7185928E-1,9.174312E-1,-2.1538462E-1,1.0683662E0,1.4477211E-1,-2.1176471E-1,9.0909094E-1,6.315789E-1,-4.702381E-1,1.042471E0,1.6188437E0,1.71875E-1,1.069091E0,1.5294118E0,7.769111E-1,1.6003075E0,-1.4285715E0,1.8567302E0,1.5279503E0],"categories":[],"categories_nodes":[],"categories_segments":[],"categories_sizes":[],"default_left":[1,1,1,1,1,1,1,1,1,1,1,1,1,1,1,1,1,1,1,1,1,1,1,1,1,1,1,1,1,1,1,0,1,1,1,1,1,1,1,1,1,1,1,1,1,1,1,1,0,1,1,1,1,1,0,1,1,1,1,1,0,1,1,0,0,0,0,0,0,0,0,0,0,0,0,0,0,0,0,0,0,0,0,0,0,0,0,0,0,0,0,0,0,0,0,0,0,0,0,0,0,0,0,0,0,0,0,0,0,0,0,0,0,0,0,0,0,0,0],"id":0,"left_children":[1,3,5,7,9,11,13,15,17,19,21,23,25,27,29,31,33,35,37,39,41,43,45,47,49,51,53,55,57,59,61,-1,63,65,67,69,71,73,75,77,79,81,83,85,87,89,91,93,-1,95,97,99,101,103,-1,105,107,109,111,113,-1,115,117,-1,-1,-1,-1,-1,-1,-1,-1,-1,-1,-1,-1,-1,-1,-1,-1,-1,-1,-1,-1,-1,-1,-1,-1,-1,-1,-1,-1,-1,-1,-1,-1,-1,-1,-1,-1,-1,-1,-1,-1,-1,-1,-1,-1,-1,-1,-1,-1,-1,-1,-1,-1,-1,-1,-1,-1],"loss_changes":[7.678305E3,9.0718164E2,2.1717524E3,1.2456592E2,2.6021094E2,4.7620392E2,3.9094482E2,2.085498E1,9.404993E1,6.011255E1,9.584206E1,3.1215332E1,1.3651567E2,2.442732E2,9.368115E1,3.5288086E0,1.2670654E1,1.5629089E1,6.3619774E1,1.8290506E1,1.303009E1,4.935317E1,2.2115097E1,5.8103027E0,3.1093018E1,7.467962E1,1.0776543E2,8.196063E1,5.900647E1,1.27244385E2,1.3063721E1,0E0,2.963684E0,1.0114899E1,4.4561768E0,2.2510208E1,4.4451904E0,1.8358465E1,8.714905E0,1.2224983E1,9.892682E0,5.6296854E0,7.8924866E0,6.1900177E0,3.4968754E1,3.6606598E0,7.9335375E0,5.85083E0,0E0,1.5039953E1,1.0245956E1,3.0103432E1,2.587925E1,5.4914124E1,0E0,2.1663277E1,2.9483982E1,1.4601746E1,3.4538254E1,6.88385E1,0E0,2.9301208E1,4.6135254E0,0E0,0E0,0E0,0E0,0E0,0E0,0E0,0E0,0E0,0E0,0E0,0E0,0E0,0E0,0E0,0E0,0E0,0E0,0E0,0E0,0E0,0E0,0E0,0E0,0E0,0E0,0E0,0E0,0E0,0E0,0E0,0E0,0E0,0E0,0E0,0E0,0E0,0E0,0E0,0E0,0E0,0E0,0E0,0E0,0E0,0E0,0E0,0E0,0E0,0E0,0E0,0E0,0E0,0E0,0E0,0E0],"parents":[2147483647,0,0,1,1,2,2,3,3,4,4,5,5,6,6,7,7,8,8,9,9,10,10,11,11,12,12,13,13,14,14,15,15,16,16,17,17,18,18,19,19,20,20,21,21,22,22,23,23,24,24,25,25,26,26,27,27,28,28,29,29,30,30,32,32,33,33,34,34,35,35,36,36,37,37,38,38,39,39,40,40,41,41,42,42,43,43,44,44,45,45,46,46,47,47,49,49,50,50,51,51,52,52,53,53,55,55,56,56,57,57,58,58,59,59,61,61,62,62],"right_children":[2,4,6,8,10,12,14,16,18,20,22,24,26,28,30,32,34,36,38,40,42,44,46,48,50,52,54,56,58,60,62,-1,64,66,68,70,72,74,76,78,80,82,84,86,88,90,92,94,-1,96,98,100,102,104,-1,106,108,110,112,114,-1,116,118,-1,-1,-1,-1,-1,-1,-1,-1,-1,-1,-1,-1,-1,-1,-1,-1,-1,-1,-1,-1,-1,-1,-1,-1,-1,-1,-1,-1,-1,-1,-1,-1,-1,-1,-1,-1,-1,-1,-1,-1,-1,-1,-1,-1,-1,-1,-1,-1,-1,-1,-1,-1,-1,-1,-1,-1],"split_conditions":[5E-1,7.9961634E-1,5.991889E-1,7.494389E-1,4.9737236E-1,4.9868113E-1,4.970041E-1,5.9962624E-1,5.9705544E-1,1.4744313E-1,9.9534726E-1,3.9866322E-1,3.9914536E-1,7.9998136E-1,7.985353E-1,4.988436E-1,1.4634594E-1,1.4736487E-1,1.4709115E-1,9.9499816E-1,2.0329478E-1,2.0224494E-1,2.7812362E-1,2.6867455E-1,1.4730403E-1,9.9945474E-1,4.0101147E-1,1.4648384E-1,2.1954697E-1,6.032857E-1,4.97604E-1,-5.731889E-1,9.1212173E-4,5.831463E-1,9.9946374E-1,3.8348997E-1,9.976372E-1,6.4747906E-1,6.5629715E-1,4.8904642E-1,3.6585364E-2,8.58E-1,2.6844192E-1,2.3170732E-1,9.992957E-1,5.5532537E-2,8.6611867E-1,6.646634E-1,-5.0801396E-1,7.47496E-1,2.1753342E-1,4.0737098E-1,2.2040299E-1,2.4677813E-1,-5.625E-1,2.0833334E-1,2.147015E-1,3.921749E-1,4.9705034E-1,2.697912E-1,-5.529412E-1,4.1793993E-1,3.4209192E-1,-2.3076925E-1,-5.20332E-1,-4.846154E-1,-3.107492E-1,-5.2214116E-1,-3.5533983E-1,-4.659026E-1,-2.1272728E-1,-5.469965E-1,-4.4139653E-1,-1.3411765E-1,1.4814815E-1,-4.1433966E-1,-2.4843751E-1,-3.8426968E-1,-9.428572E-2,2.7058825E-1,-4.0601507E-2,-2.8767124E-1,-1.2765958E-2,-3.3913043E-1,-4.8409092E-1,3.322314E-1,1.0843374E-1,-2.1550389E-1,4.1052632E-2,1.0000001E-1,3.8842976E-1,1.2727274E-1,-3.176471E-1,-4.419355E-1,-3.1094894E-1,-2.1059602E-1,7.964602E-2,-4.3902438E-2,-3.7864077E-1,-3.7066668E-1,-1.1155779E-1,2.7522936E-1,-6.461539E-2,3.2050985E-1,4.3431636E-2,-6.352942E-2,2.7272728E-1,1.8947369E-1,-1.4107144E-1,3.1274134E-1,4.8565313E-1,5.1562503E-2,3.207273E-1,4.5882356E-1,2.3307334E-1,4.8009226E-1,-4.2857146E-1,5.570191E-1,4.583851E-1],"split_indices":[7,2,2,9,9,9,9,2,2,1,9,2,2,2,2,9,1,1,1,2,4,4,1,1,1,9,2,1,1,2,8,0,1,8,8,2,9,8,8,8,1,3,1,1,2,8,4,8,0,8,4,8,1,1,0,8,4,8,8,1,0,8,1,0,0,0,0,0,0,0,0,0,0,0,0,0,0,0,0,0,0,0,0,0,0,0,0,0,0,0,0,0,0,0,0,0,0,0,0,0,0,0,0,0,0,0,0,0,0,0,0,0,0,0,0,0,0,0,0],"split_type":[0,0,0,0,0,0,0,0,0,0,0,0,0,0,0,0,0,0,0,0,0,0,0,0,0,0,0,0,0,0,0,0,0,0,0,0,0,0,0,0,0,0,0,0,0,0,0,0,0,0,0,0,0,0,0,0,0,0,0,0,0,0,0,0,0,0,0,0,0,0,0,0,0,0,0,0,0,0,0,0,0,0,0,0,0,0,0,0,0,0,0,0,0,0,0,0,0,0,0,0,0,0,0,0,0,0,0,0,0,0,0,0,0,0,0,0,0,0,0],"sum_hessian":[6.53425E3,2.69825E3,3.836E3,2.044E3,6.5425E2,1.016E3,2.82E3,1.45475E3,5.8925E2,2.9375E2,3.605E2,4.055E2,6.105E2,8.14E2,2.006E3,9.83E2,4.7175E2,3.8E2,2.0925E2,9.925E1,1.945E2,2.3875E2,1.2175E2,2.3025E2,1.7525E2,2.885E2,3.22E2,3.1825E2,4.9575E2,7.3525E2,1.27075E3,7.375E2,2.455E2,1.3975E2,3.32E2,1.4025E2,2.3975E2,8.1E1,1.2825E2,5.525E1,4.4E1,2.8E1,1.665E2,4.9E1,1.8975E2,9.475E1,2.7E1,1.595E2,7.075E1,6.4E1,1.1125E2,2.035E2,8.5E1,3.07E2,1.5E1,1.2375E2,1.945E2,2.9625E2,1.995E2,7.235E2,1.175E1,3.2675E2,9.44E2,5.5E0,2.4E2,6.4E1,7.575E1,3.0725E2,2.475E1,8.625E1,5.4E1,1.405E2,9.925E1,4.15E1,3.95E1,6.525E1,6.3E1,2.125E1,3.4E1,1.175E1,3.225E1,1.725E1,1.075E1,7.95E1,8.7E1,2.925E1,1.975E1,9.575E1,9.4E1,5E0,8.975E1,2.375E1,3.25E0,9.2E1,6.75E1,3.675E1,2.725E1,9.25E0,1.02E2,5.525E1,1.4825E2,5.35E1,3.15E1,2.1475E2,9.225E1,2.025E1,1.035E2,2.75E1,1.67E2,6.375E1,2.325E2,6.3E1,1.365E2,5.6425E2,1.5925E2,3.2425E2,2.5E0,8.645E2,7.95E1],"tree_param":{"num_deleted":"0","num_feature":"11","num_nodes":"119","size_leaf_vector":"0"}},{"base_weights":[2.9980927E-4,-9.6279347E-1,6.719269E-1,-1.219514E0,-1.9181865E-1,-2.4954589E-1,1.0127168E0,-1.3000325E0,-6.706513E-1,-7.0233744E-1,2.1910132E-1,-6.827575E-1,3.7034953E-1,7.04367E-1,1.3031068E0,-1.4146085E0,-1.1266778E0,-1.2159098E0,-3.8555244E-1,-2.8055173E-1,-9.879871E-1,-4.446654E-2,7.427175E-1,-5.039901E-1,-1.1239071E0,5.514276E-1,-2.338452E-1,2.377127E-1,9.969151E-1,9.896149E-1,1.3651469E0,-1.4674625E0,-1.2992882E0,-1.2806879E0,-8.3615625E-1,-1.631673E-1,-1.2504939E0,1.1401508E-1,-7.180738E-1,6.2951595E-1,-4.1309363E-1,-7.510383E-1,-1.2768104E0,-2.923216E-1,5.3778875E-1,9.52307E-1,2.1735758E-1,-7.8085536E-1,-1.6778687E-1,-1.3054051E0,-9.55953E-1,2.4764179E-1,8.5200214E-1,-6.255166E-1,1.4758426E-1,4.829242E-1,-4.284988E-1,6.3238156E-1,1.1375322E0,5.942848E-1,1.2571981E0,1.4059272E0,1.0889069E0,-1.101347E0,-1.4754697E0,-8.4462243E-1,-1.3500662E0,-1.3916229E0,-1.1119881E0,-5.827614E-1,-1.2442816E0,1.1318772E-1,-4.2477098E-1,-1.3505205E0,-9.656115E-1,-5.235036E-1,4.999742E-1,-1.0935262E0,-4.6786606E-1,-7.676731E-1,8.342805E-1,3.7347224E-1,-5.9378827E-1,-9.7452E-1,-4.6204957E-1,-1.3237835E0,-4.4399664E-1,2.9246464E-1,-5.368439E-1,9.051365E-2,9.1689247E-1,1.0833994E0,6.759328E-1,-7.580739E-2,6.656813E-1,-9.5227855E-1,-4.189169E-1,-3.4334242E-2,-1.6287819E0,-1.3483962E0,-3.3666235E-1,-1.2047459E0,-5.886131E-1,3.2995486E-1,-1.5643182E0,8.843406E-1,-1.0602789E0,-1.7449206E-1,-1.1192536E0,-3.6741945E-1,5.154625E-1,5.4578894E-1,-1.7100834E0,-8.569403E-1,-2.038777E-2,1.0167234E0,3.455174E-1,1.2402538E0,7.63756E-1,1.3057094E0,4.2308456E-1,1.4002185E0,9.6628517E-1,1.3423052E0,1.5132203E0,-1.5608201E0,1.142671E0],"categories":[],"categories_nodes":[],"categories_segments":[],"categories_sizes":[],"default_left":[1,1,1,1,1,1,1,1,1,1,1,1,1,1,1,1,1,1,1,1,1,1,1,1,1,1,1,1,1,1,1,1,1,1,1,1,1,1,1,1,1,1,1,1,1,1,1,1,1,1,1,1,1,1,1,1,1,1,1,1,1,1,1,0,0,0,0,0,0,0,0,0,0,0,0,0,0,0,0,0,0,0,0,0,0,0,0,0,0,0,0,0,0,0,0,0,0,0,0,0,0,0,0,0,0,0,0,0,0,0,0,0,0,0,0,0,0,0,0,0,0,0,0,0,0,0,0],"id":1,"left_children":[1,3,5,7,9,11,13,15,17,19,21,23,25,27,29,31,33,35,37,39,41,43,45,47,49,51,53,55,57,59,61,63,65,67,69,71,73,75,77,79,81,83,85,87,89,91,93,95,97,99,101,103,105,107,109,111,113,115,117,119,121,123,125,-1,-1,-1,-1,-1,-1,-1,-1,-1,-1,-1,-1,-1,-1,-1,-1,-1,-1,-1,-1,-1,-1,-1,-1,-1,-1,-1,-1,-1,-1,-1,-1,-1,-1,-1,-1,-1,-1,-1,-1,-1,-1,-1,-1,-1,-1,-1,-1,-1,-1,-1,-1,-1,-1,-1,-1,-1,-1,-1,-1,-1,-1,-1,-1],"loss_changes":[4.033706E3,5.0686597E2,1.153976E3,8.40625E1,1.3466624E2,2.6683987E2,2.3925415E2,3.167456E1,3.807364E1,3.4203094E1,4.916619E1,4.554431E1,4.4877598E1,1.7765631E2,2.5492188E1,4.2160645E0,2.8970703E1,2.878395E0,2.7370441E1,1.4367095E1,1.0691086E1,3.446906E1,1.2924614E1,3.8767998E1,3.8671112E0,2.8551323E1,1.4287469E1,8.244896E1,4.032086E1,2.3757416E1,1.1418701E1,3.717041E-1,6.3497925E0,6.6294556E0,2.3629364E1,3.2590428E-1,1.0274887E0,1.6627003E1,8.766285E0,5.0073485E0,1.4816713E1,5.746006E0,2.357544E0,2.4096231E1,1.2013977E1,2.3456116E0,4.690762E0,1.38029785E1,3.6988674E1,2.7908325E0,7.597046E0,2.4092064E1,1.0703735E1,1.0286667E1,9.462877E0,5.1730003E1,2.37579E1,2.4469307E1,2.1187866E1,1.1066963E1,4.357376E0,4.782715E0,2.3480896E1,0E0,0E0,0E0,0E0,0E0,0E0,0E0,0E0,0E0,0E0,0E0,0E0,0E0,0E0,0E0,0E0,0E0,0E0,0E0,0E0,0E0,0E0,0E0,0E0,0E0,0E0,0E0,0E0,0E0,0E0,0E0,0E0,0E0,0E0,0E0,0E0,0E0,0E0,0E0,0E0,0E0,0E0,0E0,0E0,0E0,0E0,0E0,0E0,0E0,0E0,0E0,0E0,0E0,0E0,0E0,0E0,0E0,0E0,0E0,0E0,0E0,0E0,0E0,0E0],"parents":[2147483647,0,0,1,1,2,2,3,3,4,4,5,5,6,6,7,7,8,8,9,9,10,10,11,11,12,12,13,13,14,14,15,15,16,16,17,17,18,18,19,19,20,20,21,21,22,22,23,23,24,24,25,25,26,26,27,27,28,28,29,29,30,30,31,31,32,32,33,33,34,34,35,35,36,36,37,37,38,38,39,39,40,40,41,41,42,42,43,43,44,44,45,45,46,46,47,47,48,48,49,49,50,50,51,51,52,52,53,53,54,54,55,55,56,56,57,57,58,58,59,59,60,60,61,61,62,62],"right_children":[2,4,6,8,10,12,14,16,18,20,22,24,26,28,30,32,34,36,38,40,42,44,46,48,50,52,54,56,58,60,62,64,66,68,70,72,74,76,78,80,82,84,86,88,90,92,94,96,98,100,102,104,106,108,110,112,114,116,118,120,122,124,126,-1,-1,-1,-1,-1,-1,-1,-1,-1,-1,-1,-1,-1,-1,-1,-1,-1,-1,-1,-1,-1,-1,-1,-1,-1,-1,-1,-1,-1,-1,-1,-1,-1,-1,-1,-1,-1,-1,-1,-1,-1,-1,-1,-1,-1,-1,-1,-1,-1,-1,-1,-1,-1,-1,-1,-1,-1,-1,-1,-1,-1,-1,-1,-1],"split_conditions":[5E-1,7.9961634E-1,5.991889E-1,9.993317E-1,4.9737236E-1,7.492178E-1,7.466055E-1,4.988436E-1,3.984915E-1,1.7143655E-1,9.9534726E-1,2.6867455E-1,2.7412164E-1,7.9998136E-1,3.221833E-1,5.9962624E-1,5.9805524E-1,6.040265E-3,1.4736487E-1,1.8625406E-3,6.006422E-1,8.311427E-1,2.4796075E-1,3.9866322E-1,5.784713E-1,9.990832E-1,9.9945474E-1,2.6865327E-1,4.9705034E-1,7.985353E-1,3.1787974E-1,1.7224841E-3,2.0881522E-1,3.985619E-1,2.6971334E-1,9E-1,8.248495E-1,4.948678E-1,4.8775804E-1,5.7949996E-1,2.3922217E-1,9.9725294E-1,9.9138343E-1,1.2494255E-1,9.9077356E-1,7.0000005E-1,7.212255E-1,4.713059E-1,4.0467858E-1,9.9E-1,3.9444637E-1,7.5138485E-1,4.0101147E-1,6.0081685E-1,3.3268887E-1,6.032857E-1,6.592341E-1,1.5125626E-1,2.6921418E-1,2.0320302E-1,2.196677E-1,9.799229E-1,3.4144145E-1,-3.304041E-1,-4.4264093E-1,-2.5338674E-1,-4.0501988E-1,-4.1748688E-1,-3.3359644E-1,-1.7482843E-1,-3.7328452E-1,3.395632E-2,-1.274313E-1,-4.0515617E-1,-2.8968346E-1,-1.5705109E-1,1.4999226E-1,-3.280579E-1,-1.4035982E-1,-2.3030193E-1,2.5028417E-1,1.12041675E-1,-1.7813648E-1,-2.92356E-1,-1.3861488E-1,-3.9713508E-1,-1.3319899E-1,8.773939E-2,-1.6105318E-1,2.7154095E-2,2.7506775E-1,3.2501984E-1,2.0277986E-1,-2.274222E-2,1.997044E-1,-2.8568357E-1,-1.2567508E-1,-1.0300273E-2,-4.886346E-1,-4.0451887E-1,-1.0099871E-1,-3.614238E-1,-1.7658393E-1,9.898646E-2,-4.6929547E-1,2.6530218E-1,-3.1808367E-1,-5.234762E-2,-3.357761E-1,-1.1022584E-1,1.5463877E-1,1.6373669E-1,-5.1302505E-1,-2.570821E-1,-6.1163316E-3,3.0501702E-1,1.0365523E-1,3.7207615E-1,2.291268E-1,3.917128E-1,1.2692538E-1,4.2006555E-1,2.8988555E-1,4.0269157E-1,4.539661E-1,-4.6824604E-1,3.428013E-1],"split_indices":[7,2,2,9,9,9,9,9,2,1,9,1,1,2,8,2,2,1,1,1,4,8,1,2,8,9,9,1,8,2,1,1,4,2,1,4,8,8,8,3,4,2,8,1,2,4,8,9,2,3,2,9,2,4,2,2,8,1,1,4,1,2,1,0,0,0,0,0,0,0,0,0,0,0,0,0,0,0,0,0,0,0,0,0,0,0,0,0,0,0,0,0,0,0,0,0,0,0,0,0,0,0,0,0,0,0,0,0,0,0,0,0,0,0,0,0,0,0,0,0,0,0,0,0,0,0,0],"split_type":[0,0,0,0,0,0,0,0,0,0,0,0,0,0,0,0,0,0,0,0,0,0,0,0,0,0,0,0,0,0,0,0,0,0,0,0,0,0,0,0,0,0,0,0,0,0,0,0,0,0,0,0,0,0,0,0,0,0,0,0,0,0,0,0,0,0,0,0,0,0,0,0,0,0,0,0,0,0,0,0,0,0,0,0,0,0,0,0,0,0,0,0,0,0,0,0,0,0,0,0,0,0,0,0,0,0,0,0,0,0,0,0,0,0,0,0,0,0,0,0,0,0,0,0,0,0,0],"sum_hessian":[6.2340225E3,2.5610786E3,3.6729438E3,1.920879E3,6.401995E2,9.9170575E2,2.681238E3,1.6739423E3,2.4693686E2,2.8518375E2,3.550158E2,5.836928E2,4.0801297E2,1.3020674E3,1.3791708E3,1.0035211E3,6.704211E2,8.3663506E1,1.6327335E2,1.1595242E2,1.6923134E2,2.3675679E2,1.1825901E2,4.168961E2,1.667967E2,3.139954E2,9.401758E1,5.0243207E2,7.9963525E2,2.3064758E2,1.1485232E3,6.800934E2,3.2342773E2,4.3592303E2,2.3449806E2,2.8429146E0,8.0820595E1,6.5510284E1,9.776306E1,1.42638035E1,1.01688614E2,9.494193E1,7.42894E1,1.6641502E2,7.034177E1,8.395353E1,3.4305477E1,2.2789812E2,1.8899797E2,7.6911064E1,8.9885635E1,1.5707059E2,1.569248E2,4.6070297E1,4.794728E1,3.674576E2,1.3497447E2,2.2412213E2,5.755131E2,9.440039E1,1.362472E2,9.972183E2,1.5130482E2,1.752105E1,6.625723E2,3.426381E1,2.891639E2,2.58613E2,1.7731001E2,1.4617163E2,8.832643E1,1.6583669E0,1.1845478E0,5.704914E1,2.377145E1,2.4569899E1,4.0940384E1,3.7748528E1,6.0014538E1,1.4718357E0,1.2791968E1,1.8797222E1,8.2891396E1,5.220129E1,4.2740646E1,6.976492E1,4.5244775E0,4.90098E1,1.1740522E2,3.2837776E1,3.7503994E1,5.496294E1,2.8990587E1,2.124439E1,1.3061087E1,1.5354453E2,7.435359E1,1.7411699E2,1.4880981E1,7.326767E1,3.643395E0,5.223091E1,3.7654724E1,1.5102766E2,6.0429287E0,1.5484381E2,2.0810032E0,2.4783863E1,2.1286434E1,1.9979137E1,2.7968142E1,3.5794778E2,9.50981E0,6.5310585E1,6.966388E1,9.469931E1,1.2942282E2,4.4962793E2,1.25885216E2,1.7025192E1,7.73752E1,8.8784996E1,4.7462193E1,6.3449207E2,3.6272626E2,2.451542E0,1.4885329E2],"tree_param":{"num_deleted":"0","num_feature":"11","num_nodes":"127","size_leaf_vector":"0"}},{"base_weights":[-1.2271571E-3,-7.6587826E-1,5.21119E-1,-9.923569E-1,-1.414812E-1,-1.8821122E-1,7.986472E-1,-1.1874034E0,-7.902921E-1,-4.1780242E-1,3.0468583E-1,-6.891117E-1,1.2688677E-1,1.2702839E-1,9.135947E-1,-1.2500843E0,-1.0568745E0,-9.777014E-1,-4.701425E-1,1.848082E-1,-5.529614E-1,8.927787E-1,9.805932E-2,-9.253058E-1,-4.6980926E-1,-1.9569324E-1,4.195288E-1,1.9828166E-1,-2.1409333E0,6.033766E-1,1.0328181E0,-8.9860624E-1,-1.2582394E0,-8.316741E-1,-1.1523337E0,-1.1157885E0,-7.925017E-1,-8.787512E-2,-7.6417994E-1,-1.935405E-1,5.401988E-1,-8.136397E-1,-2.5376242E-1,1.2396985E0,5.9794927E-1,-4.2555708E-1,2.5270197E-1,-1.0915989E0,-7.8203213E-1,-7.114662E-2,-7.104818E-1,-1.1436141E-1,-1.6748642E0,4.963774E-1,-1.3199905E0,-1.8724279E-1,5.4085726E-1,2.4134105E-1,8.3614E-1,9.20742E-1,1.2352476E0,6.869485E-2,-1.0888085E0,-2.2984233E-1,-9.872212E-1,-1.1790341E0,-7.909028E-1,-4.577993E-1,-1.132231E0,-9.253486E-1,-1.6699943E-1,-4.0207165E-1,2.732022E-1,-9.043436E-1,-4.3235496E-1,-5.2387875E-1,4.891401E-1,-7.8603315E-1,6.2817246E-1,-7.205574E-1,-1.505699E0,-6.634788E-2,-6.5112287E-1,6.890997E-1,1.3335428E0,1.0218028E0,9.257362E-2,3.0283454E-1,-5.808302E-1,-7.971224E-3,5.1225877E-1,-8.633336E-1,-1.2655346E0,-6.2303543E-1,-1.0353832E0,1.15808204E-1,-6.4985824E-1,-5.809702E-1,-1.1173075E0,-3.4351176E-1,2.616126E-1,7.849137E-1,2.6665708E-1,-4.9501035E-1,3.3106554E-1,7.943396E-1,1.5708344E-2,3.6580297E-1,-7.250027E-1,5.5403787E-1,1.0636712E0,9.3443394E-1,-2.4365308E0,1.2493908E0,6.754466E-1],"categories":[],"categories_nodes":[],"categories_segments":[],"categories_sizes":[],"default_left":[1,1,1,1,1,1,1,1,1,1,1,1,1,1,1,1,1,1,1,1,1,1,1,1,1,1,1,1,0,1,1,1,0,1,1,1,1,1,1,1,1,1,1,1,1,1,1,1,1,1,1,1,0,1,0,1,1,1,1,1,1,0,0,0,0,0,0,0,0,0,0,0,0,0,0,0,0,0,0,0,0,0,0,0,0,0,0,0,0,0,0,0,0,0,0,0,0,0,0,0,0,0,0,0,0,0,0,0,0,0,0,0,0,0,0],"id":2,"left_children":[1,3,5,7,9,11,13,15,17,19,21,23,25,27,29,31,33,35,37,39,41,43,45,47,49,51,53,55,-1,57,59,61,-1,63,65,67,69,71,73,75,77,79,81,83,85,87,89,91,93,95,97,99,-1,101,-1,103,105,107,109,111,113,-1,-1,-1,-1,-1,-1,-1,-1,-1,-1,-1,-1,-1,-1,-1,-1,-1,-1,-1,-1,-1,-1,-1,-1,-1,-1,-1,-1,-1,-1,-1,-1,-1,-1,-1,-1,-1,-1,-1,-1,-1,-1,-1,-1,-1,-1,-1,-1,-1,-1,-1,-1,-1,-1],"loss_changes":[2.2797522E3,3.274525E2,6.6773645E2,6.605432E1,7.62896E1,1.5073758E2,1.8807642E2,5.7390137E0,4.981183E1,3.1209076E1,2.8693419E1,1.8664902E1,5.5472466E1,5.8180576E1,7.635376E1,5.2459717E-1,5.199005E0,1.2607727E1,3.4923157E1,9.613327E0,2.4143837E1,5.5447235E0,1.439065E1,3.351471E0,1.8489792E1,3.3467648E1,4.18251E1,4.59869E1,0E0,4.8692734E1,3.2940918E1,3.1278677E0,0E0,8.091583E0,9.836731E-1,2.724884E0,1.8857513E1,1.5592678E1,7.7866135E0,8.146721E0,4.779043E0,9.633591E0,1.0890315E1,4.9180603E-1,7.435734E0,4.766607E0,9.260077E0,2.050377E0,3.316143E0,8.065632E0,5.69363E0,2.303079E1,0E0,1.938855E1,0E0,2.63586E1,2.4510098E1,2.7743359E1,2.2053146E1,4.6898926E1,3.3709106E0,0E0,0E0,0E0,0E0,0E0,0E0,0E0,0E0,0E0,0E0,0E0,0E0,0E0,0E0,0E0,0E0,0E0,0E0,0E0,0E0,0E0,0E0,0E0,0E0,0E0,0E0,0E0,0E0,0E0,0E0,0E0,0E0,0E0,0E0,0E0,0E0,0E0,0E0,0E0,0E0,0E0,0E0,0E0,0E0,0E0,0E0,0E0,0E0,0E0,0E0,0E0,0E0,0E0,0E0],"parents":[2147483647,0,0,1,1,2,2,3,3,4,4,5,5,6,6,7,7,8,8,9,9,10,10,11,11,12,12,13,13,14,14,15,15,16,16,17,17,18,18,19,19,20,20,21,21,22,22,23,23,24,24,25,25,26,26,27,27,29,29,30,30,31,31,33,33,34,34,35,35,36,36,37,37,38,38,39,39,40,40,41,41,42,42,43,43,44,44,45,45,46,46,47,47,48,48,49,49,50,50,51,51,53,53,55,55,56,56,57,57,58,58,59,59,60,60],"right_children":[2,4,6,8,10,12,14,16,18,20,22,24,26,28,30,32,34,36,38,40,42,44,46,48,50,52,54,56,-1,58,60,62,-1,64,66,68,70,72,74,76,78,80,82,84,86,88,90,92,94,96,98,100,-1,102,-1,104,106,108,110,112,114,-1,-1,-1,-1,-1,-1,-1,-1,-1,-1,-1,-1,-1,-1,-1,-1,-1,-1,-1,-1,-1,-1,-1,-1,-1,-1,-1,-1,-1,-1,-1,-1,-1,-1,-1,-1,-1,-1,-1,-1,-1,-1,-1,-1,-1,-1,-1,-1,-1,-1,-1,-1,-1,-1],"split_conditions":[5E-1,7.9961634E-1,5.991889E-1,4.988436E-1,7.471938E-1,4.9868113E-1,2.4879523E-1,5.9962624E-1,5.9805524E-1,2.0224494E-1,7.459501E-2,5.806917E-1,3.9914536E-1,6.4245344E-4,4.97604E-1,1.7224841E-3,4.0229684E-1,3.985619E-1,1.7092541E-1,5E-1,9.9810547E-1,5E-1,3.2427615E-1,2.4747479E-1,1.4636846E-1,2.0062575E-1,4.0101147E-1,7.9932034E-1,-6.4228E-1,7.985353E-1,9.972156E-1,5.855E-1,-3.7747183E-1,1.0056309E-1,9.6882E-1,9.552299E-4,9.1363144E-1,7.865E-1,8.3190376E-1,4.037899E-1,4.5165107E-2,8.016268E-1,2.6888657E-1,1.25E-1,2.512205E-2,2.4026713E-1,9.9077356E-1,5E-1,2.4490072E-1,9.174397E-1,5.004629E-1,8.308747E-1,-5.024593E-1,1.476292E-1,-3.9599717E-1,8.216772E-1,6.0246843E-1,3.4175944E-1,7.461802E-1,8.031032E-1,3.723442E-1,2.0608457E-2,-3.2664257E-1,-6.89527E-2,-2.9616636E-1,-3.5371023E-1,-2.3727085E-1,-1.3733979E-1,-3.3966932E-1,-2.7760458E-1,-5.009983E-2,-1.206215E-1,8.196066E-2,-2.713031E-1,-1.2970649E-1,-1.5716363E-1,1.4674203E-1,-2.3580995E-1,1.8845175E-1,-2.1616723E-1,-4.5170972E-1,-1.9904366E-2,-1.9533686E-1,2.0672993E-1,4.0006286E-1,3.0654085E-1,2.7772088E-2,9.085037E-2,-1.7424907E-1,-2.3913675E-3,1.5367764E-1,-2.590001E-1,-3.796604E-1,-1.8691063E-1,-3.1061497E-1,3.4742463E-2,-1.9495748E-1,-1.7429107E-1,-3.3519226E-1,-1.0305353E-1,7.848378E-2,2.3547412E-1,7.999713E-2,-1.4850311E-1,9.931967E-2,2.3830189E-1,4.7125034E-3,1.097409E-1,-2.1750082E-1,1.6621137E-1,3.191014E-1,2.8033018E-1,-7.309593E-1,3.7481725E-1,2.0263399E-1],"split_indices":[7,2,2,9,9,9,9,2,2,4,1,8,2,9,8,1,4,2,1,0,2,4,8,8,1,2,2,2,0,2,2,3,0,1,3,1,8,3,8,9,8,2,1,6,1,4,2,0,1,8,6,8,0,1,0,8,4,1,9,2,1,0,0,0,0,0,0,0,0,0,0,0,0,0,0,0,0,0,0,0,0,0,0,0,0,0,0,0,0,0,0,0,0,0,0,0,0,0,0,0,0,0,0,0,0,0,0,0,0,0,0,0,0,0,0],"split_type":[0,0,0,0,0,0,0,0,0,0,0,0,0,0,0,0,0,0,0,0,0,0,0,0,0,0,0,0,0,0,0,0,0,0,0,0,0,0,0,0,0,0,0,0,0,0,0,0,0,0,0,0,0,0,0,0,0,0,0,0,0,0,0,0,0,0,0,0,0,0,0,0,0,0,0,0,0,0,0,0,0,0,0,0,0,0,0,0,0,0,0,0,0,0,0,0,0,0,0,0,0,0,0,0,0,0,0,0,0,0,0,0,0,0,0],"sum_hessian":[5.705763E3,2.315576E3,3.3901873E3,1.6988038E3,6.1677216E2,9.534924E2,2.436695E3,8.619323E2,8.368716E2,3.8092212E2,2.3585E2,3.677329E2,5.8575946E2,3.5640213E2,2.0802927E3,5.765109E2,2.854214E2,5.2657245E2,3.1029913E2,6.971742E1,3.112047E2,6.0457462E1,1.7539255E2,1.7549802E2,1.922349E2,2.787852E2,3.0697427E2,3.464308E2,9.971353E0,5.792222E2,1.5010706E3,1.5594326E1,5.609166E2,8.786025E1,1.9756113E2,2.987764E2,2.2779602E2,1.3547363E2,1.748255E2,3.3988594E1,3.5728825E1,1.6538925E2,1.4581546E2,2.6302752E1,3.4154713E1,3.958997E1,1.3580258E2,7.816058E1,9.7337425E1,7.2853E1,1.193819E2,2.6527634E2,1.3508836E1,2.9467093E2,1.2303345E1,1.6321118E2,1.832196E2,2.2746483E2,3.5175742E2,9.6972577E2,5.3134485E2,2.6674504E0,1.2926875E1,1.8553192E1,6.930706E1,1.8186398E2,1.5697146E1,7.987298E0,2.9078912E2,1.8749554E2,4.0300484E1,7.237872E1,6.3094902E1,1.21695625E2,5.3129883E1,2.3061916E1,1.0926679E1,1.728981E0,3.3999844E1,1.4758075E2,1.7808502E1,9.987603E1,4.593943E1,5.045145E0,2.1257607E1,1.8019808E1,1.6134905E1,6.789562E0,3.2800407E1,6.8239174E1,6.75634E1,3.6380283E1,4.1780304E1,6.193056E1,3.5406864E1,5.5668865E1,1.7184135E1,9.2396E1,2.6985899E1,1.6487433E2,1.00402016E2,1.2954337E2,1.6512756E2,1.02432495E2,6.077869E1,1.2322699E2,5.999261E1,2.0206143E2,2.5403397E1,1.5857944E2,1.93178E2,9.665057E2,3.220043E0,5.170498E2,1.4295018E1],"tree_param":{"num_deleted":"0","num_feature":"11","num_nodes":"115","size_leaf_vector":"0"}},{"base_weights":[-2.948974E-3,-6.2033194E-1,4.0820482E-1,-8.283047E-1,-1.0423635E-1,-1.4375605E-1,6.380003E-1,-9.709626E-1,-5.265161E-1,-2.3486269E-1,4.818039E-1,-4.1431203E-1,2.2388314E-1,3.7986162E-1,9.145707E-1,-1.0606227E0,-8.037406E-1,-7.332311E-1,-2.1131302E-1,-6.4489305E-2,-6.2863076E-1,5.7068765E-1,-3.220937E-1,-6.633872E-1,-2.1637598E-1,-6.585197E-2,4.4006202E-1,1.8129078E-1,8.2152283E-1,1.0436118E0,7.2893167E-1,-1.1121653E0,-9.1653943E-1,-6.604447E-1,-1.0339808E0,-4.672111E-1,-8.981775E-1,1.8950804E-1,-4.1818807E-1,-2.7418667E-1,2.98926E-1,-7.941207E-1,-2.1467674E-1,6.904619E-1,2.1524103E-1,2.6067674E-1,-8.7592757E-1,3.1436726E-1,-6.912483E-1,-4.5589545E-1,5.915627E-2,1.02416426E-1,-5.705593E-1,6.874573E-1,1.07701115E-1,5.327802E-1,-6.1880007E-2,8.546646E-1,-3.0804329E-2,8.994905E-1,1.1395117E0,9.456578E-1,3.1010494E-1,-7.5090903E-1,-1.1213261E0,-7.5120676E-1,-1.0633928E0,-4.656929E-2,-7.437656E-1,-1.0527138E0,-5.178544E-1,-7.051833E-1,-1.5679996E-1,-1.050345E0,-6.921233E-1,4.2436725E-1,-4.6116555E-1,-6.974131E-1,-1.12238325E-1,5.792146E-1,-3.562073E-1,1.4970687E-3,5.811366E-1,-9.802903E-1,-5.6898427E-1,1.6954365E-1,-6.071011E-1,1.0545397E0,4.807293E-1,-6.5627813E-1,5.333252E-1,6.8437505E-1,-1.3196748E-1,-1.1075506E0,3.5225675E-2,-6.87845E-1,8.80069E-1,-2.5849158E-1,-7.6053613E-1,8.505533E-1,-5.4048973E-1,1.5727958E-1,-1.2923752E0,4.984565E-1,-1.2209169E-1,-8.870182E-1,-2.0111778E-1,7.626645E-1,-1.3063708E-1,-2.4659924E-1,3.5718563E-1,3.1659418E-1,8.954373E-1,-3.0679294E-1,2.514509E-1,8.642712E-1,-8.959983E-1,-8.6931413E-1,4.2065138E-1,9.337319E-1,-1.4878151E0,1.141798E0,2.2843367E-1,6.148024E-1,1.0230722E0,-2.0795352E0,3.586437E-1],"categories":[],"categories_nodes":[],"categories_segments":[],"categories_sizes":[],"default_left":[1,1,1,1,1,1,1,1,1,1,1,1,1,1,1,1,1,1,1,1,1,1,1,1,1,1,1,1,1,1,1,1,1,1,1,1,1,1,1,1,1,1,1,1,1,1,1,1,1,1,1,1,1,1,1,1,1,1,1,1,1,1,1,0,0,0,0,0,0,0,0,0,0,0,0,0,0,0,0,0,0,0,0,0,0,0,0,0,0,0,0,0,0,0,0,0,0,0,0,0,0,0,0,0,0,0,0,0,0,0,0,0,0,0,0,0,0,0,0,0,0,0,0,0,0,0,0],"id":3,"left_children":[1,3,5,7,9,11,13,15,17,19,21,23,25,27,29,31,33,35,37,39,41,43,45,47,49,51,53,55,57,59,61,63,65,67,69,71,73,75,77,79,81,83,85,87,89,91,93,95,97,99,101,103,105,107,109,111,113,115,117,119,121,123,125,-1,-1,-1,-1,-1,-1,-1,-1,-1,-1,-1,-1,-1,-1,-1,-1,-1,-1,-1,-1,-1,-1,-1,-1,-1,-1,-1,-1,-1,-1,-1,-1,-1,-1,-1,-1,-1,-1,-1,-1,-1,-1,-1,-1,-1,-1,-1,-1,-1,-1,-1,-1,-1,-1,-1,-1,-1,-1,-1,-1,-1,-1,-1,-1],"loss_changes":[1.3141385E3,2.220415E2,3.9424707E2,6.298877E1,4.5704914E1,9.103267E1,1.5630951E2,1.414563E1,3.0834427E1,3.2676933E1,7.9637203E0,2.5839409E1,2.4346563E1,9.953787E1,2.4598328E1,3.793396E0,1.0972595E1,1.2166214E1,1.5815658E1,2.610785E1,9.91132E0,4.040661E0,3.933337E0,6.5613556E0,1.9505112E1,1.4221459E1,1.8219006E1,6.716326E1,9.976837E0,7.574402E0,3.9411697E1,7.220459E-1,3.4848785E0,1.1244705E1,7.4806213E-1,8.152779E0,4.7904053E0,1.0173641E1,1.064175E1,1.5401081E1,1.0527918E1,3.8333511E0,6.6469617E0,5.0785255E0,7.6280365E0,1.1490691E0,1.3295641E0,4.6531363E0,6.602257E0,1.7922161E1,1.8522795E1,1.12567625E1,4.7144556E0,7.935356E0,8.5845175E0,2.4904991E1,3.5770763E1,6.477478E0,5.722064E0,2.2098557E1,5.095215E-1,6.7416687E0,1.821975E1,0E0,0E0,0E0,0E0,0E0,0E0,0E0,0E0,0E0,0E0,0E0,0E0,0E0,0E0,0E0,0E0,0E0,0E0,0E0,0E0,0E0,0E0,0E0,0E0,0E0,0E0,0E0,0E0,0E0,0E0,0E0,0E0,0E0,0E0,0E0,0E0,0E0,0E0,0E0,0E0,0E0,0E0,0E0,0E0,0E0,0E0,0E0,0E0,0E0,0E0,0E0,0E0,0E0,0E0,0E0,0E0,0E0,0E0,0E0,0E0,0E0,0E0,0E0,0E0],"parents":[2147483647,0,0,1,1,2,2,3,3,4,4,5,5,6,6,7,7,8,8,9,9,10,10,11,11,12,12,13,13,14,14,15,15,16,16,17,17,18,18,19,19,20,20,21,21,22,22,23,23,24,24,25,25,26,26,27,27,28,28,29,29,30,30,31,31,32,32,33,33,34,34,35,35,36,36,37,37,38,38,39,39,40,40,41,41,42,42,43,43,44,44,45,45,46,46,47,47,48,48,49,49,50,50,51,51,52,52,53,53,54,54,55,55,56,56,57,57,58,58,59,59,60,60,61,61,62,62],"right_children":[2,4,6,8,10,12,14,16,18,20,22,24,26,28,30,32,34,36,38,40,42,44,46,48,50,52,54,56,58,60,62,64,66,68,70,72,74,76,78,80,82,84,86,88,90,92,94,96,98,100,102,104,106,108,110,112,114,116,118,120,122,124,126,-1,-1,-1,-1,-1,-1,-1,-1,-1,-1,-1,-1,-1,-1,-1,-1,-1,-1,-1,-1,-1,-1,-1,-1,-1,-1,-1,-1,-1,-1,-1,-1,-1,-1,-1,-1,-1,-1,-1,-1,-1,-1,-1,-1,-1,-1,-1,-1,-1,-1,-1,-1,-1,-1,-1,-1,-1,-1,-1,-1,-1,-1,-1,-1],"split_conditions":[5E-1,7.9961634E-1,5.991889E-1,7.494389E-1,9.9534726E-1,7.492178E-1,7.466055E-1,5.9962624E-1,5.9705544E-1,2.6844192E-1,3.46987E-1,5.806917E-1,6.6357994E-1,9.99905E-1,1.9793151E-1,4.988436E-1,2.6920503E-1,1.4736487E-1,4.0040064E-1,7.486409E-1,8.605E-1,5.641463E-1,6.1134976E-1,9.030034E-4,3.9840317E-1,5.018209E-1,6.0201967E-1,1.4648384E-1,3.6940545E-1,7.985353E-1,6.1140776E-1,1.7224841E-3,2.203236E-1,2.0881522E-1,9.8800004E-1,3.8348997E-1,9.976372E-1,5.0845647E-1,6.482154E-1,1.8625406E-3,7.6049995E-1,5E-1,4.286474E-1,6.8149996E-1,5.94E-1,7.565E-1,6.795589E-1,3E-1,2.15954E-1,2.5562901E-2,4.01698E-1,4.0105516E-1,9.7882223E-1,3.4514242E-1,3.8482246E-1,8.3220184E-1,7.444643E-1,9.975E-1,4.166667E-1,6.095372E-1,9.975E-1,2.977077E-1,7.932545E-1,-2.2527272E-1,-3.3639783E-1,-2.2536203E-1,-3.1901783E-1,-1.3970788E-2,-2.2312969E-1,-3.1581414E-1,-1.5535632E-1,-2.11555E-1,-4.703999E-2,-3.151035E-1,-2.07637E-1,1.2731019E-1,-1.3834967E-1,-2.0922394E-1,-3.36715E-2,1.7376438E-1,-1.06862195E-1,4.4912062E-4,1.7434098E-1,-2.940871E-1,-1.7069529E-1,5.08631E-2,-1.8213034E-1,3.163619E-1,1.442188E-1,-1.9688345E-1,1.5999757E-1,2.0531252E-1,-3.9590247E-2,-3.322652E-1,1.0567702E-2,-2.063535E-1,2.640207E-1,-7.7547476E-2,-2.2816084E-1,2.55166E-1,-1.6214693E-1,4.7183875E-2,-3.8771257E-1,1.4953695E-1,-3.662751E-2,-2.6610547E-1,-6.0335338E-2,2.2879936E-1,-3.9191127E-2,-7.397977E-2,1.07155696E-1,9.497826E-2,2.686312E-1,-9.203789E-2,7.543527E-2,2.5928137E-1,-2.687995E-1,-2.6079425E-1,1.2619542E-1,2.801196E-1,-4.4634455E-1,3.4253943E-1,6.8530105E-2,1.8444073E-1,3.069217E-1,-6.238606E-1,1.0759312E-1],"split_indices":[7,2,2,9,9,9,9,2,2,1,1,8,8,2,1,9,1,1,4,8,3,6,4,1,2,6,4,1,1,2,4,1,1,4,3,2,9,6,8,1,3,10,4,3,3,3,8,2,4,1,2,4,9,1,2,8,8,3,8,2,3,8,4,0,0,0,0,0,0,0,0,0,0,0,0,0,0,0,0,0,0,0,0,0,0,0,0,0,0,0,0,0,0,0,0,0,0,0,0,0,0,0,0,0,0,0,0,0,0,0,0,0,0,0,0,0,0,0,0,0,0,0,0,0,0,0,0],"split_type":[0,0,0,0,0,0,0,0,0,0,0,0,0,0,0,0,0,0,0,0,0,0,0,0,0,0,0,0,0,0,0,0,0,0,0,0,0,0,0,0,0,0,0,0,0,0,0,0,0,0,0,0,0,0,0,0,0,0,0,0,0,0,0,0,0,0,0,0,0,0,0,0,0,0,0,0,0,0,0,0,0,0,0,0,0,0,0,0,0,0,0,0,0,0,0,0,0,0,0,0,0,0,0,0,0,0,0,0,0,0,0,0,0,0,0,0,0,0,0,0,0,0,0,0,0,0,0],"sum_hessian":[5.175051E3,2.0685042E3,3.1065464E3,1.4739404E3,5.945636E2,9.132724E2,2.1932742E3,9.9933124E2,4.7460922E2,4.8668292E2,1.0788069E2,5.260272E2,3.8724515E2,1.1356663E3,1.0576079E3,6.470546E2,3.522766E2,2.8583078E2,1.8877846E2,3.405147E2,1.4616823E2,9.740149E1,1.0479199E1,2.3188303E2,2.941442E2,1.657684E2,2.2147676E2,7.844072E2,3.5125897E2,6.211875E2,4.3642044E2,4.716228E2,1.7543181E2,2.195207E2,1.327559E2,1.1086456E2,1.7496622E2,6.429351E1,1.2448494E2,2.1607877E2,1.2443593E2,1.037663E2,4.2401928E1,7.2147545E1,2.5253948E1,5.3641295E0,5.11507E0,6.139541E0,2.2574348E2,1.570053E2,1.371389E2,1.2491806E2,4.0850346E1,1.26355034E2,9.512172E1,3.2027588E2,4.6413138E2,3.3810922E2,1.3149743E1,2.5234137E2,3.688461E2,2.8677036E2,1.4965009E2,1.3715641E1,4.5790717E2,8.540038E1,9.0031425E1,2.64209E1,1.9309981E2,1.2710303E2,5.6528835E0,6.2034744E1,4.882982E1,9.828616E1,7.668005E1,4.7497276E1,1.6796236E1,6.44161E1,6.0068844E1,1.841493E1,1.9766383E2,6.10739E1,6.3362026E1,5.496254E1,4.8803757E1,2.1711895E1,2.0690031E1,2.4898264E1,4.724928E1,6.46828E0,1.878567E1,2.2226741E0,3.1414552E0,3.9064643E0,1.2086055E0,2.1372385E0,4.002303E0,3.1808044E1,1.9393544E2,8.997417E0,1.4800787E2,1.2868015E2,8.458752E0,4.475264E1,8.016542E1,2.1248331E1,1.9602016E1,1.15779236E2,1.0575795E1,3.930917E1,5.581255E1,2.0183289E2,1.1844299E2,2.605192E2,2.0361217E2,3.3676758E2,1.3416617E0,4.2781515E0,8.871592E0,2.4937344E2,2.9679189E0,3.6767026E2,1.1758573E0,5.6071686E1,2.3069865E2,2.146207E0,1.4750388E2],"tree_param":{"num_deleted":"0","num_feature":"11","num_nodes":"127","size_leaf_vector":"0"}},{"base_weights":[-3.1263845E-3,-5.028483E-1,3.209998E-1,-6.946238E-1,-7.660309E-2,7.145165E-2,6.9727033E-1,-9.2124665E-1,-4.964591E-1,-3.627725E-1,1.4080259E-1,-2.8122357E-1,2.710566E-1,3.8321653E-1,8.52184E-1,-1.0085636E0,-7.624778E-1,-8.304428E-1,-3.3838052E-1,-9.373746E-2,-5.736984E-1,-3.2431185E-1,2.3605849E-1,2.395903E-1,-3.752884E-1,4.0571445E-1,-1.3254583E-1,6.22597E-1,8.208718E-2,8.991548E-1,5.119511E-1,-1.0691665E0,-9.213683E-1,-9.106049E-1,-5.9612584E-1,-6.5797347E-1,-9.4494975E-1,-1.2611933E-1,-6.758252E-1,-4.8823503E-1,5.851459E-2,-3.7347403E-1,-8.4944904E-1,-6.1902434E-1,1.0868016E-1,8.201725E-1,1.5696101E-1,-3.1910437E-1,5.0866365E-1,-7.1625255E-2,-5.0705045E-1,1.2493416E-1,5.7306117E-1,-3.738679E-1,2.6908654E-1,4.207241E-1,8.366104E-1,3.0987713E-1,-4.0640754E-1,7.164325E-1,9.7945267E-1,-2.3601863E0,5.8221024E-1,-9.468502E-1,-1.1141672E0,-1.18422255E-1,-9.433345E-1,-6.946431E-2,-9.436883E-1,-2.2658736E-1,-7.7040327E-1,-8.9884806E-1,-5.119028E-1,-1.1239284E0,-8.6757594E-1,-7.355233E-1,3.51798E-2,-8.0484974E-1,-3.8667408E-1,-9.1216236E-1,5.9796317E-4,4.724243E-1,-2.2515829E-1,-2.2199652E-1,-7.6468825E-1,-9.368569E-1,-1.9447237E-1,-8.2286453E-1,-7.4937105E-2,5.234848E-1,-9.2997354E-1,4.023603E-1,1.034786E0,3.2188642E-1,-1.5185954E-1,-4.3326184E-2,-8.803675E-1,-3.3011132E-1,6.494688E-1,-4.6992043E-1,9.987024E-2,-4.7860995E-1,-1.4676489E0,-4.1129522E-2,4.4227114E-1,2.0323348E-1,6.9237006E-1,-1.3152371E-1,-6.883445E-1,-4.6016893E-1,5.2273583E-1,5.0396156E-1,-1.8990328E0,6.0764843E-1,9.8955184E-1,3.859499E-1,-4.0789536E-1,-5.499907E-1,8.3396596E-1,7.478853E-1,-1.9196179E0,1.0816873E0,8.887553E-1,1.0539757E0,3.09028E-1],"categories":[],"categories_nodes":[],"categories_segments":[],"categories_sizes":[],"default_left":[1,1,1,1,1,1,1,1,1,1,1,1,1,1,1,1,1,1,1,1,1,1,1,1,1,1,1,1,1,1,1,1,1,1,1,1,1,1,1,1,1,1,1,1,1,1,1,1,1,1,1,1,1,1,1,1,1,1,1,1,1,0,1,0,0,0,0,0,0,0,0,0,0,0,0,0,0,0,0,0,0,0,0,0,0,0,0,0,0,0,0,0,0,0,0,0,0,0,0,0,0,0,0,0,0,0,0,0,0,0,0,0,0,0,0,0,0,0,0,0,0,0,0,0,0],"id":4,"left_children":[1,3,5,7,9,11,13,15,17,19,21,23,25,27,29,31,33,35,37,39,41,43,45,47,49,51,53,55,57,59,61,63,65,67,69,71,73,75,77,79,81,83,85,87,89,91,93,95,97,99,101,103,105,107,109,111,113,115,117,119,121,-1,123,-1,-1,-1,-1,-1,-1,-1,-1,-1,-1,-1,-1,-1,-1,-1,-1,-1,-1,-1,-1,-1,-1,-1,-1,-1,-1,-1,-1,-1,-1,-1,-1,-1,-1,-1,-1,-1,-1,-1,-1,-1,-1,-1,-1,-1,-1,-1,-1,-1,-1,-1,-1,-1,-1,-1,-1,-1,-1,-1,-1,-1,-1],"loss_changes":[7.6291516E2,1.5142581E2,2.6821912E2,5.6933777E1,3.5896378E1,1.2107902E2,5.5094116E1,7.4796143E0,3.5828705E1,1.4077175E1,1.4614507E1,3.0548779E1,5.97369E1,2.72047E1,1.1717773E1,1.0270386E0,4.7604065E0,3.7039642E0,3.3286587E1,6.6733713E0,7.378681E0,7.238846E0,1.24813595E1,1.4552452E1,2.1049995E1,3.8631073E1,2.6801205E1,8.742386E0,1.8887714E1,9.1032715E0,2.0496664E1,1.4729309E-1,2.7697296E0,3.0497513E0,6.54055E0,2.730812E0,8.1612396E-1,2.8260311E1,6.392105E0,6.406845E0,9.583685E0,4.721448E0,3.129776E0,3.663578E0,1.0659363E1,2.4812393E0,1.235514E1,4.873212E0,7.8903656E0,1.10196085E1,9.334061E0,1.6295048E1,2.2618668E1,1.3056257E1,1.9474165E1,2.2261597E1,2.9413223E0,6.4671087E0,1.0085307E1,1.8659706E1,3.3181152E0,0E0,1.1698864E1,0E0,0E0,0E0,0E0,0E0,0E0,0E0,0E0,0E0,0E0,0E0,0E0,0E0,0E0,0E0,0E0,0E0,0E0,0E0,0E0,0E0,0E0,0E0,0E0,0E0,0E0,0E0,0E0,0E0,0E0,0E0,0E0,0E0,0E0,0E0,0E0,0E0,0E0,0E0,0E0,0E0,0E0,0E0,0E0,0E0,0E0,0E0,0E0,0E0,0E0,0E0,0E0,0E0,0E0,0E0,0E0,0E0,0E0,0E0,0E0,0E0,0E0],"parents":[2147483647,0,0,1,1,2,2,3,3,4,4,5,5,6,6,7,7,8,8,9,9,10,10,11,11,12,12,13,13,14,14,15,15,16,16,17,17,18,18,19,19,20,20,21,21,22,22,23,23,24,24,25,25,26,26,27,27,28,28,29,29,30,30,31,31,32,32,33,33,34,34,35,35,36,36,37,37,38,38,39,39,40,40,41,41,42,42,43,43,44,44,45,45,46,46,47,47,48,48,49,49,50,50,51,51,52,52,53,53,54,54,55,55,56,56,57,57,58,58,59,59,60,60,62,62],"right_children":[2,4,6,8,10,12,14,16,18,20,22,24,26,28,30,32,34,36,38,40,42,44,46,48,50,52,54,56,58,60,62,64,66,68,70,72,74,76,78,80,82,84,86,88,90,92,94,96,98,100,102,104,106,108,110,112,114,116,118,120,122,-1,124,-1,-1,-1,-1,-1,-1,-1,-1,-1,-1,-1,-1,-1,-1,-1,-1,-1,-1,-1,-1,-1,-1,-1,-1,-1,-1,-1,-1,-1,-1,-1,-1,-1,-1,-1,-1,-1,-1,-1,-1,-1,-1,-1,-1,-1,-1,-1,-1,-1,-1,-1,-1,-1,-1,-1,-1,-1,-1,-1,-1,-1,-1],"split_conditions":[5E-1,7.9961634E-1,7.9998136E-1,4.988436E-1,4.9737236E-1,4.9868113E-1,4.965653E-1,5.9962624E-1,3.985619E-1,1.7143655E-1,2.476944E-1,2.0001864E-1,2.689E-1,2.1954697E-1,8.115192E-1,6.6556954E-1,5E-1,1.4709231E-1,2.4416006E-1,3.2447952E-1,6.006422E-1,5E-1,2.4741478E-2,3.8279766E-1,1.2228504E-1,5.773388E-1,8.3050966E-1,9.8905087E-1,6.1258316E-1,7.461802E-1,9.9808323E-1,4.0104938E-1,1.7224841E-3,5.5550003E-1,1.4634594E-1,4.0614957E-1,3.327641E-1,2.4502519E-1,8.3190376E-1,2.3846886E-1,4.500317E-1,3.4201765E-1,9.3282723E-1,9.882003E-1,2.7358112E-1,6.25E-1,6.178248E-1,2.4629015E-1,3.3105445E-1,3.9866322E-1,6.0073924E-1,9.9868107E-1,3.8815635E-1,6.0081685E-1,3.9444637E-1,8.027477E-1,1.9372058E-1,3.6804754E-1,9.733887E-1,5.03879E-1,1.5853658E-1,-7.080559E-1,8.3668515E-2,-2.8405505E-1,-3.3425018E-1,-3.5526678E-2,-2.8300038E-1,-2.0839294E-2,-2.831065E-1,-6.797621E-2,-2.3112099E-1,-2.6965442E-1,-1.5357085E-1,-3.3717853E-1,-2.602728E-1,-2.2065699E-1,1.0553941E-2,-2.4145493E-1,-1.16002224E-1,-2.736487E-1,1.7938895E-4,1.417273E-1,-6.754749E-2,-6.659896E-2,-2.2940649E-1,-2.810571E-1,-5.8341715E-2,-2.4685937E-1,-2.2481132E-2,1.5704545E-1,-2.789921E-1,1.2070809E-1,3.104358E-1,9.656593E-2,-4.5557864E-2,-1.2997855E-2,-2.6411027E-1,-9.90334E-2,1.9484064E-1,-1.4097613E-1,2.9961074E-2,-1.4358298E-1,-4.4029468E-1,-1.2338857E-2,1.3268135E-1,6.0970046E-2,2.0771103E-1,-3.9457116E-2,-2.0650335E-1,-1.3805069E-1,1.5682076E-1,1.5118848E-1,-5.697099E-1,1.8229453E-1,2.9686555E-1,1.1578498E-1,-1.2236861E-1,-1.6499722E-1,2.501898E-1,2.2436559E-1,-5.758854E-1,3.2450622E-1,2.666266E-1,3.1619272E-1,9.27084E-2],"split_indices":[7,2,2,9,9,9,9,2,2,1,8,4,1,1,4,8,10,1,1,8,4,10,1,2,1,8,8,2,4,9,4,4,1,3,1,8,8,8,8,9,4,1,3,9,1,9,4,1,8,2,2,9,2,4,2,2,9,1,8,9,1,0,1,0,0,0,0,0,0,0,0,0,0,0,0,0,0,0,0,0,0,0,0,0,0,0,0,0,0,0,0,0,0,0,0,0,0,0,0,0,0,0,0,0,0,0,0,0,0,0,0,0,0,0,0,0,0,0,0,0,0,0,0,0,0],"split_type":[0,0,0,0,0,0,0,0,0,0,0,0,0,0,0,0,0,0,0,0,0,0,0,0,0,0,0,0,0,0,0,0,0,0,0,0,0,0,0,0,0,0,0,0,0,0,0,0,0,0,0,0,0,0,0,0,0,0,0,0,0,0,0,0,0,0,0,0,0,0,0,0,0,0,0,0,0,0,0,0,0,0,0,0,0,0,0,0,0,0,0,0,0,0,0,0,0,0,0,0,0,0,0,0,0,0,0,0,0,0,0,0,0,0,0,0,0,0,0,0,0,0,0,0,0],"sum_hessian":[4.7081416E3,1.852105E3,2.8560369E3,1.2769517E3,5.751534E2,1.717894E3,1.1381427E3,5.9399976E2,6.829519E2,2.480191E2,3.2713425E2,6.2073303E2,1.097161E3,3.7710925E2,7.6103345E2,3.797817E2,2.1421806E2,2.180368E2,4.649151E2,1.09630424E2,1.3838869E2,5.5199936E1,2.7193433E2,9.472375E1,5.260093E2,8.226777E2,2.7448334E2,2.0950072E2,1.6760852E2,6.6727075E2,9.37627E1,2.174126E2,1.6236911E2,1.10949646E2,1.0326842E2,8.969106E1,1.2834575E2,2.8623798E2,1.7867714E2,2.9914013E1,7.9716415E1,8.1537865E1,5.6850815E1,3.2588913E1,2.2611023E1,3.131466E1,2.4061966E2,3.0730352E1,6.3993393E1,1.5964041E2,3.6636887E2,3.0786963E2,5.148081E2,1.7150385E2,1.0297949E2,1.0933446E2,1.0016626E2,1.1455571E2,5.305282E1,2.0674146E2,4.605293E2,1.4606324E0,9.230207E1,6.44021E1,1.5301048E2,4.4938307E0,1.5787527E2,4.3159833E0,1.0663367E2,3.38317E1,6.943672E1,3.1912672E1,5.7778393E1,3.4655594E1,9.3690155E1,5.9161194E1,2.2707677E2,1.22314606E2,5.636253E1,1.5556797E1,1.4357216E1,3.2146206E1,4.757021E1,5.990875E1,2.1629114E1,4.977754E1,7.073278E0,2.3334394E1,9.2545185E0,1.6512472E1,6.0985503E0,1.1602189E1,1.971247E1,1.5682504E2,8.379461E1,2.1327984E1,9.402369E0,9.005178E0,5.4988216E1,4.75248E1,1.12115616E2,3.5728882E2,9.080044E0,2.0267789E2,1.0519174E2,1.2623002E2,3.8857806E2,9.766148E1,7.384236E1,2.6364866E1,7.6614624E1,1.0630285E2,3.0316043E0,4.210532E1,5.806094E1,1.0399603E2,1.0559675E1,4.8047523E1,5.005295E0,2.050116E2,1.7298669E0,2.1135832E2,2.4917097E2,3.2800285E1,5.950179E1],"tree_param":{"num_deleted":"0","num_feature":"11","num_nodes":"125","size_leaf_vector":"0"}},{"base_weights":[-3.5555563E-3,-4.0644664E-1,2.513869E-1,-7.2666216E-1,-1.946624E-1,5.3671334E-2,5.7867956E-1,-9.206665E-1,-5.602587E-1,-2.9483372E-1,2.652542E-1,-6.491545E-2,4.6629927E-1,2.9607922E-1,7.3296446E-1,-1.0067132E0,-8.3642876E-1,-8.0068135E-1,-4.1007042E-1,-4.2958727E-1,6.313313E-2,4.1544616E-1,-1.5759458E-1,2.1333656E-1,-2.092218E-1,2.8235468E-1,7.389914E-1,4.5302078E-1,-2.082064E-2,5.016666E-1,8.260714E-1,-7.762495E-1,-1.034729E0,-9.499979E-1,-6.2590474E-1,-9.74036E-1,-6.890529E-1,4.2282677E-1,-4.7239378E-1,-2.964401E-1,-7.071613E-1,1.4519344E-1,-5.2915394E-1,7.0758206E-1,1.6023746E-1,-5.478493E-1,2.8534645E-1,-7.23351E-2,4.8044172E-1,-1.5966713E0,-1.7643872E-1,6.310537E-1,1.5687034E-1,9.2214125E-1,5.165474E-1,7.2449565E-1,2.545865E-1,-1.9087781E0,6.1576314E-2,5.343382E-1,-1.4331301E0,8.658928E-1,4.7238398E-1,-7.6234154E-2,-8.472637E-1,-5.203428E-1,-1.0464311E0,-1.5865602E-1,-9.791836E-1,-7.0048195E-1,3.863573E-2,-2.7517676E-1,-9.991072E-1,-9.1941714E-1,-5.466156E-1,3.768829E-2,1.0093172E0,-2.2696614E-2,-5.5532515E-1,-5.865429E-1,-1.2311402E-1,-4.4485706E-1,-8.3280325E-1,1.7245421E-1,-1.3789768E0,-6.173041E-1,7.061093E-1,5.173934E-1,1.1266413E0,-3.3699714E-2,5.389769E-1,-9.239706E-1,2.807242E-1,1.001751E0,7.875851E-2,-3.897118E-1,1.8943234E-1,5.1897514E-1,-1.4486103E0,1.7505786E-1,-2.8365144E-1,3.5956818E-1,8.202833E-1,-2.7461493E-1,2.8165993E-1,8.1880346E-2,9.5724165E-1,8.6892366E-1,1.9284174E-1,9.335466E-2,7.853905E-1,6.3379014E-1,1.0822624E-1,2.5833544E-1,-4.159266E-1,4.0188566E-1,8.341987E-1,7.0684254E-1,9.3028533E-1,1.0129383E0,3.0629995E-1],"categories":[],"categories_nodes":[],"categories_segments":[],"categories_sizes":[],"default_left":[1,1,1,1,1,1,1,1,1,1,1,1,1,1,1,1,1,1,1,1,1,1,1,1,1,1,1,1,1,1,1,1,1,1,1,1,1,1,1,1,1,1,1,1,1,1,1,1,1,0,1,1,1,1,1,1,1,0,1,1,0,1,1,0,0,0,0,0,0,0,0,0,0,0,0,0,0,0,0,0,0,0,0,0,0,0,0,0,0,0,0,0,0,0,0,0,0,0,0,0,0,0,0,0,0,0,0,0,0,0,0,0,0,0,0,0,0,0,0,0,0],"id":5,"left_children":[1,3,5,7,9,11,13,15,17,19,21,23,25,27,29,31,33,35,37,39,41,43,45,47,49,51,53,55,57,59,61,63,65,67,69,71,73,75,77,79,81,83,85,87,89,91,93,95,97,-1,99,101,103,105,107,109,111,-1,113,115,-1,117,119,-1,-1,-1,-1,-1,-1,-1,-1,-1,-1,-1,-1,-1,-1,-1,-1,-1,-1,-1,-1,-1,-1,-1,-1,-1,-1,-1,-1,-1,-1,-1,-1,-1,-1,-1,-1,-1,-1,-1,-1,-1,-1,-1,-1,-1,-1,-1,-1,-1,-1,-1,-1,-1,-1,-1,-1,-1,-1],"loss_changes":[4.4334442E2,1.1330029E2,1.7103416E2,2.0970123E1,4.652749E1,8.072402E1,4.318509E1,1.3740845E0,1.2700165E1,3.998577E1,1.155075E1,5.151471E1,1.8263382E1,1.7576471E1,1.3437683E1,1.4160156E-1,3.240471E0,1.9931641E0,1.1834209E1,2.203746E1,1.1130358E1,9.8563595E0,8.475063E0,3.347506E1,3.8134033E1,9.594532E0,5.5421295E0,1.2543388E1,1.8465233E1,1.2596527E1,6.028473E0,9.2285156E-1,2.2276306E-1,2.20652E0,2.9580212E0,6.276283E-1,2.357666E0,3.6056979E0,7.7818794E0,2.0469856E1,6.036873E0,8.569988E0,3.4728045E0,4.363083E0,5.355505E0,8.339097E0,3.35443E0,1.7739191E1,1.7596771E1,0E0,3.118537E1,2.6998158E0,8.920833E0,2.2735825E0,7.7008114E0,3.7404404E0,7.592621E0,0E0,1.0816324E1,7.0036163E0,0E0,3.5375366E0,4.039791E0,0E0,0E0,0E0,0E0,0E0,0E0,0E0,0E0,0E0,0E0,0E0,0E0,0E0,0E0,0E0,0E0,0E0,0E0,0E0,0E0,0E0,0E0,0E0,0E0,0E0,0E0,0E0,0E0,0E0,0E0,0E0,0E0,0E0,0E0,0E0,0E0,0E0,0E0,0E0,0E0,0E0,0E0,0E0,0E0,0E0,0E0,0E0,0E0,0E0,0E0,0E0,0E0,0E0,0E0,0E0,0E0,0E0,0E0],"parents":[2147483647,0,0,1,1,2,2,3,3,4,4,5,5,6,6,7,7,8,8,9,9,10,10,11,11,12,12,13,13,14,14,15,15,16,16,17,17,18,18,19,19,20,20,21,21,22,22,23,23,24,24,25,25,26,26,27,27,28,28,29,29,30,30,31,31,32,32,33,33,34,34,35,35,36,36,37,37,38,38,39,39,40,40,41,41,42,42,43,43,44,44,45,45,46,46,47,47,48,48,50,50,51,51,52,52,53,53,54,54,55,55,56,56,58,58,59,59,61,61,62,62],"right_children":[2,4,6,8,10,12,14,16,18,20,22,24,26,28,30,32,34,36,38,40,42,44,46,48,50,52,54,56,58,60,62,64,66,68,70,72,74,76,78,80,82,84,86,88,90,92,94,96,98,-1,100,102,104,106,108,110,112,-1,114,116,-1,118,120,-1,-1,-1,-1,-1,-1,-1,-1,-1,-1,-1,-1,-1,-1,-1,-1,-1,-1,-1,-1,-1,-1,-1,-1,-1,-1,-1,-1,-1,-1,-1,-1,-1,-1,-1,-1,-1,-1,-1,-1,-1,-1,-1,-1,-1,-1,-1,-1,-1,-1,-1,-1,-1,-1,-1,-1,-1,-1],"split_conditions":[5E-1,5.9962624E-1,7.9998136E-1,4.988436E-1,9.993317E-1,9.9945474E-1,4.965653E-1,5.832666E-1,4.9894845E-1,9.992957E-1,5.2048516E-1,4.0105516E-1,8.2501066E-1,6.0246843E-1,4.97604E-1,2.2933486E-1,8.275E-1,7.0765483E-1,2.6886215E-2,2.6844192E-1,3.4201765E-1,1.4993897E-1,5E-1,6.646634E-1,5.98854E-1,7.628083E-2,1.718082E-1,1.7199036E-1,7.929208E-1,4.1793993E-1,3.4209192E-1,3.6200844E-2,3.6066924E-3,1.7224841E-3,9.9669945E-1,9.1212173E-4,1.6527548E-1,7.916666E-1,2.011918E-1,4.9986303E-1,4.007043E-1,7.655297E-1,9.87E-1,1.2069471E-1,3.75E-1,9.885714E-1,6.0975607E-2,4.9316338E-1,6.076832E-1,-4.7900143E-1,7.3880136E-2,3.75E-1,3.9914536E-1,5.4443276E-1,8.343652E-1,1.25E-1,2.1929839E-1,-5.7263345E-1,2.7271634E-1,8.6950004E-1,-4.2993906E-1,6.28879E-1,2.7846557E-1,-2.2870246E-2,-2.5417912E-1,-1.5610285E-1,-3.1392932E-1,-4.759681E-2,-2.9375508E-1,-2.101446E-1,1.1590719E-2,-8.255303E-2,-2.9973218E-1,-2.7582514E-1,-1.6398469E-1,1.1306487E-2,3.0279517E-1,-6.8089846E-3,-1.6659755E-1,-1.7596288E-1,-3.6934208E-2,-1.3345712E-1,-2.4984099E-1,5.1736265E-2,-4.1369307E-1,-1.8519123E-1,2.1183279E-1,1.5521803E-1,3.379924E-1,-1.01099145E-2,1.6169308E-1,-2.771912E-1,8.4217265E-2,3.005253E-1,2.3627553E-2,-1.1691354E-1,5.6829702E-2,1.5569255E-1,-4.345831E-1,5.251736E-2,-8.5095435E-2,1.0787046E-1,2.46085E-1,-8.238448E-2,8.449798E-2,2.4564104E-2,2.871725E-1,2.606771E-1,5.7852525E-2,2.8006399E-2,2.3561716E-1,1.9013704E-1,3.2467872E-2,7.7500634E-2,-1.2477799E-1,1.20565705E-1,2.5025964E-1,2.1205278E-1,2.790856E-1,3.038815E-1,9.188999E-2],"split_indices":[7,2,2,9,9,9,9,8,8,2,6,4,8,4,8,4,3,3,1,1,1,1,0,8,4,1,1,1,4,8,1,1,1,1,8,1,8,8,4,8,4,9,3,1,6,2,1,9,2,0,1,6,2,3,8,8,4,0,1,3,0,9,4,0,0,0,0,0,0,0,0,0,0,0,0,0,0,0,0,0,0,0,0,0,0,0,0,0,0,0,0,0,0,0,0,0,0,0,0,0,0,0,0,0,0,0,0,0,0,0,0,0,0,0,0,0,0,0,0,0,0],"split_type":[0,0,0,0,0,0,0,0,0,0,0,0,0,0,0,0,0,0,0,0,0,0,0,0,0,0,0,0,0,0,0,0,0,0,0,0,0,0,0,0,0,0,0,0,0,0,0,0,0,0,0,0,0,0,0,0,0,0,0,0,0,0,0,0,0,0,0,0,0,0,0,0,0,0,0,0,0,0,0,0,0,0,0,0,0,0,0,0,0,0,0,0,0,0,0,0,0,0,0,0,0,0,0,0,0,0,0,0,0,0,0,0,0,0,0,0,0,0,0,0,0],"sum_hessian":[4.3143037E3,1.6717721E3,2.6425317E3,6.645493E2,1.0072228E3,1.6480925E3,9.9443915E2,3.0473547E2,3.598138E2,8.2737646E2,1.7984633E2,1.2808319E3,3.6726068E2,3.5221448E2,6.422247E2,1.4533192E2,1.5940353E2,1.366816E2,2.2313223E2,6.009529E2,2.2642363E2,1.3272215E2,4.7124172E1,4.372488E2,8.4358307E2,2.2053448E2,1.4672621E2,2.3526984E2,1.1694463E2,1.8615733E2,4.5606732E2,1.8863659E1,1.2646827E2,1.01263504E2,5.8140038E1,5.0512314E1,8.616927E1,1.5131297E1,2.0800093E2,4.0753415E2,1.9341872E2,1.9953348E2,2.6890148E1,6.1057465E1,7.166469E1,2.49261E1,2.2198072E1,2.1163367E2,2.2561514E2,1.8371185E1,8.2521185E2,5.7294415E1,1.6324007E2,7.874542E1,6.798078E1,9.823079E1,1.3703905E2,3.9635005E0,1.1298113E2,1.8377783E2,2.379502E0,4.0861356E2,4.7453762E1,1.9283768E0,1.6935282E1,3.8244243E0,1.22643845E2,3.8308203E0,9.743268E1,5.222506E1,5.914979E0,2.1640942E0,4.834822E1,3.0838755E1,5.533052E1,9.775892E0,5.355405E0,3.2584484E1,1.7541644E2,1.5152934E2,2.560048E2,6.4112E1,1.2930672E2,1.9689867E2,2.6348069E0,2.5565987E1,1.3241603E0,4.3534245E1,1.7523224E1,4.7997913E1,2.3666773E1,1.7064663E1,7.8614383E0,4.1069574E0,1.8091116E1,9.543542E1,1.1619826E2,2.2191333E2,3.7018209E0,1.9272633E2,6.3248553E2,2.472373E1,3.2570686E1,3.635044E1,1.26889626E2,3.2911816E0,7.545425E1,3.174252E1,3.6238262E1,8.8665905E0,8.93642E1,3.7235508E1,9.980354E1,8.03367E1,3.2644432E1,1.2909503E2,5.4682804E1,1.21207214E2,2.8740634E2,9.95482E0,3.7498943E1],"tree_param":{"num_deleted":"0","num_feature":"11","num_nodes":"121","size_leaf_vector":"0"}},{"base_weights":[-3.072451E-3,-3.23081E-1,1.9426967E-1,-6.2080926E-1,-1.4666617E-1,-1.208844E-1,3.5180238E-1,-8.394247E-1,-4.5226052E-1,-3.748843E-1,1.3410345E-2,-9.1765195E-2,-1.2360042E0,1.8319155E-1,5.834822E-1,-9.41005E-1,-7.442773E-1,-3.0120882E-1,-7.0808566E-1,-2.0839255E-1,-5.80485E-1,4.100816E-1,-7.887451E-2,-2.6152548E-1,8.8485524E-2,-1.8031234E-1,2.8226876E-1,6.585915E-1,1.4880413E-1,-6.847148E-1,-9.746073E-1,-8.719524E-1,-5.258222E-1,-5.186035E-1,-8.7192886E-2,-8.0002373E-1,-4.4959542E-1,-5.1439977E-1,-4.532794E-2,-7.5404894E-1,-3.5801744E-1,1.2786381E-1,6.2486356E-1,5.255152E-1,-1.5017852E-1,-1.9317436E-1,-1.3034402E0,1.5352349E-1,-4.262916E-1,-1.3025397E-1,-1.8269695E0,4.0645114E-1,-4.1432578E-2,5.5802715E-1,9.0140396E-1,-2.107362E0,2.4284236E-1,-7.7027386E-1,4.58197E-2,-4.4008684E-1,-9.8901254E-1,-1.2431374E-1,-9.059389E-1,-3.7309563E-1,-9.497287E-1,-6.199784E-1,-2.2446647E-1,3.476681E-2,-1.195947E0,-8.7879366E-1,-4.4884852E-1,2.4260011E-1,-5.8772624E-1,-5.839106E-1,1.2612082E0,7.343427E-2,-5.224524E-1,-9.591914E-1,-5.3979456E-1,-5.1871127E-1,1.476979E-1,-8.573025E-1,2.2903371E-1,4.333338E-1,9.946523E-1,-1.5269655E-1,9.679559E-1,-1.377695E0,-1.2617071E-1,-5.9150535E-1,-1.11414485E-1,3.4115356E-1,-5.17811E-2,-5.8216673E-1,6.9129564E-2,-2.5848693E-1,2.3320706E-1,4.1734698E-1,-2.0668185E0,-1.6631904E0,3.8125794E-3,2.0819238E-1,6.2180233E-1,9.2223406E-1,1.9646303E-1,5.67368E-1,-1.3066413E-1],"categories":[],"categories_nodes":[],"categories_segments":[],"categories_sizes":[],"default_left":[1,1,1,1,1,1,1,1,1,1,1,1,0,1,1,1,1,1,1,1,1,1,1,1,1,1,1,1,1,1,1,1,1,1,1,1,1,1,1,1,1,1,1,1,1,1,0,1,1,1,0,1,1,1,1,0,1,0,0,0,0,0,0,0,0,0,0,0,0,0,0,0,0,0,0,0,0,0,0,0,0,0,0,0,0,0,0,0,0,0,0,0,0,0,0,0,0,0,0,0,0,0,0,0,0,0,0],"id":6,"left_children":[1,3,5,7,9,11,13,15,17,19,21,23,-1,25,27,29,31,33,35,37,39,41,43,45,47,49,51,53,55,57,59,61,63,65,67,69,71,73,75,77,79,81,83,85,87,89,-1,91,93,95,-1,97,99,101,103,-1,105,-1,-1,-1,-1,-1,-1,-1,-1,-1,-1,-1,-1,-1,-1,-1,-1,-1,-1,-1,-1,-1,-1,-1,-1,-1,-1,-1,-1,-1,-1,-1,-1,-1,-1,-1,-1,-1,-1,-1,-1,-1,-1,-1,-1,-1,-1,-1,-1,-1,-1],"loss_changes":[2.5347186E2,8.0324005E1,1.2330202E2,2.059906E1,3.517417E1,2.677811E1,6.4565186E1,1.6839142E0,1.2293495E1,1.3465454E1,2.078025E1,2.4752518E1,0E0,3.4612915E1,2.2654526E1,3.2759857E-1,3.2276611E0,9.5036125E0,2.478199E0,1.0997945E1,6.565754E0,6.414074E0,1.9930561E1,2.9405872E1,1.321369E1,1.6755003E1,3.0346409E1,1.3999695E1,2.2570404E1,1.0824323E0,3.330078E-1,1.9682312E0,2.9648905E0,2.8907318E0,1.4189209E1,2.0066643E0,3.3563795E0,1.0201271E1,8.2652445E0,3.8134956E0,6.5364637E0,4.9362264E0,3.8594627E0,1.4800952E1,1.1991716E1,1.2699995E1,0E0,1.3477113E1,3.4625044E0,9.435302E0,0E0,1.5560219E1,1.5423148E1,9.299301E0,2.3491364E0,0E0,1.2280884E1,0E0,0E0,0E0,0E0,0E0,0E0,0E0,0E0,0E0,0E0,0E0,0E0,0E0,0E0,0E0,0E0,0E0,0E0,0E0,0E0,0E0,0E0,0E0,0E0,0E0,0E0,0E0,0E0,0E0,0E0,0E0,0E0,0E0,0E0,0E0,0E0,0E0,0E0,0E0,0E0,0E0,0E0,0E0,0E0,0E0,0E0,0E0,0E0,0E0,0E0],"parents":[2147483647,0,0,1,1,2,2,3,3,4,4,5,5,6,6,7,7,8,8,9,9,10,10,11,11,13,13,14,14,15,15,16,16,17,17,18,18,19,19,20,20,21,21,22,22,23,23,24,24,25,25,26,26,27,27,28,28,29,29,30,30,31,31,32,32,33,33,34,34,35,35,36,36,37,37,38,38,39,39,40,40,41,41,42,42,43,43,44,44,45,45,47,47,48,48,49,49,51,51,52,52,53,53,54,54,56,56],"right_children":[2,4,6,8,10,12,14,16,18,20,22,24,-1,26,28,30,32,34,36,38,40,42,44,46,48,50,52,54,56,58,60,62,64,66,68,70,72,74,76,78,80,82,84,86,88,90,-1,92,94,96,-1,98,100,102,104,-1,106,-1,-1,-1,-1,-1,-1,-1,-1,-1,-1,-1,-1,-1,-1,-1,-1,-1,-1,-1,-1,-1,-1,-1,-1,-1,-1,-1,-1,-1,-1,-1,-1,-1,-1,-1,-1,-1,-1,-1,-1,-1,-1,-1,-1,-1,-1,-1,-1,-1,-1],"split_conditions":[5E-1,5.9962624E-1,5.991889E-1,4.988436E-1,4.9737236E-1,4.0101147E-1,7.466055E-1,5.832666E-1,2.4441881E-1,6.006422E-1,2.0053461E-1,3.9914536E-1,-3.7080127E-1,3.3311918E-1,8.0018E-1,2.2933486E-1,8.275E-1,3.985619E-1,9.976372E-1,4.9992642E-1,2.4628296E-1,5E-1,2.4741478E-2,2.0029117E-1,3.428117E-1,2.504016E-1,2.6865327E-1,9.936099E-1,9.9808323E-1,3.6069953E-1,3.6066924E-3,1.7224841E-3,9.6904624E-1,8.9750004E-1,4.050929E-1,9.1431427E-1,2.5543007E-1,9.9450004E-1,9.225E-1,5.825952E-1,8.7049997E-1,6.2353604E-2,9.7942245E-1,5.8166283E-1,3.9720792E-1,2.465643E-1,-3.9103207E-1,6.0135126E-1,9.986483E-1,9.945652E-1,-5.480909E-1,5.03879E-1,2.923913E-1,2.3213217E-1,3.7804878E-1,-6.3220865E-1,2.0630944E-1,-2.3108217E-1,1.37459105E-2,-1.3202606E-1,-2.967038E-1,-3.7294123E-2,-2.7178168E-1,-1.11928694E-1,-2.8491864E-1,-1.8599354E-1,-6.733994E-2,1.0430043E-2,-3.5878414E-1,-2.636381E-1,-1.3465457E-1,7.2780035E-2,-1.7631787E-1,-1.7517318E-1,3.7836248E-1,2.2030283E-2,-1.5673573E-1,-2.8775743E-1,-1.6193837E-1,-1.556134E-1,4.430937E-2,-2.5719076E-1,6.871012E-2,1.3000014E-1,2.983957E-1,-4.5808967E-2,2.9038677E-1,-4.133085E-1,-3.7851214E-2,-1.7745161E-1,-3.3424348E-2,1.0234607E-1,-1.553433E-2,-1.7465003E-1,2.073887E-2,-7.754608E-2,6.996212E-2,1.252041E-1,-6.2004554E-1,-4.9895713E-1,1.1437739E-3,6.2457714E-2,1.8654071E-1,2.7667022E-1,5.8938913E-2,1.7021039E-1,-3.919924E-2],"split_indices":[7,2,2,9,9,2,9,8,1,4,4,2,0,8,4,4,3,2,9,8,9,0,1,2,1,8,1,2,4,1,1,1,3,3,2,8,4,3,3,8,3,8,9,8,4,8,0,4,4,2,0,9,1,8,1,0,1,0,0,0,0,0,0,0,0,0,0,0,0,0,0,0,0,0,0,0,0,0,0,0,0,0,0,0,0,0,0,0,0,0,0,0,0,0,0,0,0,0,0,0,0,0,0,0,0,0,0],"split_type":[0,0,0,0,0,0,0,0,0,0,0,0,0,0,0,0,0,0,0,0,0,0,0,0,0,0,0,0,0,0,0,0,0,0,0,0,0,0,0,0,0,0,0,0,0,0,0,0,0,0,0,0,0,0,0,0,0,0,0,0,0,0,0,0,0,0,0,0,0,0,0,0,0,0,0,0,0,0,0,0,0,0,0,0,0,0,0,0,0,0,0,0,0,0,0,0,0,0,0,0,0,0,0,0,0,0,0],"sum_hessian":[4.0117388E3,1.5300248E3,2.481714E3,5.683403E2,9.6168445E2,8.2716034E2,1.6545537E3,2.4568947E2,3.2265082E2,3.9590625E2,5.657782E2,8.071651E2,1.999527E1,9.586574E2,6.9589624E2,1.1452821E2,1.3116125E2,2.0423679E2,1.1841403E2,2.1987167E2,1.7603459E2,1.0613419E2,4.5964398E2,4.154464E2,3.9171866E2,2.0515292E2,7.5350446E2,5.929274E2,1.0296885E2,1.5753181E1,9.877503E1,8.08925E1,5.0268745E1,1.006126E2,1.0362419E2,8.580167E1,3.2612362E1,7.568554E1,1.4418613E2,9.754375E1,7.8490845E1,4.6556076E1,5.9578117E1,4.7832684E1,4.118113E2,3.9098276E2,2.4463633E1,3.4840256E2,4.33161E1,2.0014754E2,5.005383E0,5.443995E2,2.09105E2,4.2160965E2,1.7131776E2,3.2634122E0,9.970544E1,1.4052927E1,1.7002547E0,3.420083E0,9.535495E1,3.7198837E0,7.717262E1,3.8336765E1,1.1931978E1,7.400041E1,2.6612186E1,9.422803E1,9.396162E0,6.885484E1,1.6946829E1,5.299485E0,2.7312876E1,7.348011E1,2.205423E0,1.16126816E2,2.8059319E1,4.8055294E1,4.9488453E1,5.9544537E1,1.8946304E1,3.639703E0,4.2916374E1,4.068E1,1.8898115E1,1.9143196E1,2.8689487E1,6.8180857E0,4.0499323E2,6.552292E1,3.2545984E2,1.8169127E2,1.667113E2,3.2816044E1,1.0500058E1,1.4816289E2,5.1984642E1,5.428393E2,1.5601926E0,4.704877E0,2.0440012E2,6.566623E1,3.5594342E2,1.6610144E2,5.2163277E0,5.3073154E1,4.6632282E1],"tree_param":{"num_deleted":"0","num_feature":"11","num_nodes":"107","size_leaf_vector":"0"}},{"base_weights":[-4.446195E-3,-2.5375915E-1,1.4689158E-1,-5.2503645E-1,-1.09359615E-1,6.005819E-2,5.596276E-1,-6.1647135E-1,-1.14603326E-1,-2.143491E-1,1.474977E-1,1.4782055E-1,-2.7544582E-1,4.5377418E-1,8.8442373E-1,-5.029186E-1,-8.5502154E-1,-2.1121973E-1,6.448742E-1,-1.7934586E-1,-1.371227E0,2.0786034E-1,-3.2687303E-1,-6.0175743E-2,2.7577612E-1,-1.685317E0,-2.21696E-1,1.2466636E-1,5.733257E-1,9.141983E-1,8.293331E-2,-7.914895E-1,-3.940945E-1,-8.999155E-1,-6.238947E-1,-5.7903383E-2,-6.3037086E-1,8.560349E-1,-6.273875E-1,-6.296248E-2,-4.5595977E-1,1.1972434E-1,5.497666E-1,-1.0055314E0,-2.1153346E-1,-3.7785582E-2,-1.4553033E0,3.1669047E-1,-4.5169482E-1,-3.3806446E-1,2.2948347E-1,5.431793E-1,-1.785435E-1,2.2050007E-1,6.717046E-1,1.0431902E0,7.52204E-1,-4.475304E-1,7.198413E-1,-8.661561E-1,-6.550547E-1,-2.0864828E-1,-6.164008E-1,-8.66798E-1,-1.0619566E-1,-1.9229399E-1,6.251806E-1,-3.1173822E-1,-1.1170422E0,2.640484E-1,1.6195111E0,-2.1710086E-1,1.559417E-1,-2.9495895E-1,-6.730738E-1,5.817607E-1,4.945573E-2,6.644997E-1,-2.596565E-1,-2.91845E-1,7.0454973E-1,-5.3306717E-1,2.1924885E-2,1.9452016E-1,5.3323317E-1,-8.851594E-1,-1.05384715E-1,-2.1490449E-1,-6.62358E-1,7.083357E-1,4.8766878E-2,6.3539326E-1,-2.0646432E-2,6.615176E-1,-4.1463047E-1,3.0058306E-1,-1.5496876E0,3.6061028E-1,7.5816065E-1,1.3135657E-1,8.9527035E-1,1.5944645E-1,-8.5149795E-1],"categories":[],"categories_nodes":[],"categories_segments":[],"categories_sizes":[],"default_left":[1,1,1,1,1,1,1,1,1,1,1,1,1,1,1,1,1,1,1,1,0,1,1,1,1,0,1,1,1,1,1,1,1,0,1,1,1,1,0,1,1,1,1,0,1,1,0,1,1,1,1,1,1,1,1,0,1,1,0,0,0,0,0,0,0,0,0,0,0,0,0,0,0,0,0,0,0,0,0,0,0,0,0,0,0,0,0,0,0,0,0,0,0,0,0,0,0,0,0,0,0,0,0],"id":7,"left_children":[1,3,5,7,9,11,13,15,17,19,21,23,25,27,29,31,33,35,37,39,-1,41,43,45,47,-1,49,51,53,55,57,59,61,-1,63,65,67,69,-1,71,73,75,77,-1,79,81,-1,83,85,87,89,91,93,95,97,-1,99,101,-1,-1,-1,-1,-1,-1,-1,-1,-1,-1,-1,-1,-1,-1,-1,-1,-1,-1,-1,-1,-1,-1,-1,-1,-1,-1,-1,-1,-1,-1,-1,-1,-1,-1,-1,-1,-1,-1,-1,-1,-1,-1,-1,-1,-1],"loss_changes":[1.4224138E2,5.572438E1,8.4043015E1,1.8483734E1,2.5127262E1,5.714249E1,1.3613716E1,1.0516541E1,6.8360205E0,2.652057E1,7.81648E0,4.0945133E1,3.01244E1,1.2105816E1,2.2901688E0,8.362137E0,7.76001E-1,5.21725E0,3.371664E0,2.066286E1,0E0,7.186532E0,2.2088034E0,1.826701E1,2.8487152E1,0E0,2.0492071E1,1.0724346E1,7.7225037E0,1.2107315E0,1.8935068E0,1.9306564E-1,8.222338E0,0E0,2.9542618E0,5.7163734E0,3.0313578E0,3.8535013E0,0E0,1.533733E1,6.4493065E0,6.2250276E0,4.727318E0,0E0,2.2441556E0,1.7114262E1,0E0,2.376342E1,7.5803766E0,1.2219303E1,6.916005E0,1.8552933E0,1.0055068E1,7.68551E0,4.4823837E0,0E0,3.9608173E0,9.0916383E-1,0E0,0E0,0E0,0E0,0E0,0E0,0E0,0E0,0E0,0E0,0E0,0E0,0E0,0E0,0E0,0E0,0E0,0E0,0E0,0E0,0E0,0E0,0E0,0E0,0E0,0E0,0E0,0E0,0E0,0E0,0E0,0E0,0E0,0E0,0E0,0E0,0E0,0E0,0E0,0E0,0E0,0E0,0E0,0E0,0E0],"parents":[2147483647,0,0,1,1,2,2,3,3,4,4,5,5,6,6,7,7,8,8,9,9,10,10,11,11,12,12,13,13,14,14,15,15,16,16,17,17,18,18,19,19,21,21,22,22,23,23,24,24,26,26,27,27,28,28,29,29,30,30,31,31,32,32,34,34,35,35,36,36,37,37,39,39,40,40,41,41,42,42,44,44,45,45,47,47,48,48,49,49,50,50,51,51,52,52,53,53,54,54,56,56,57,57],"right_children":[2,4,6,8,10,12,14,16,18,20,22,24,26,28,30,32,34,36,38,40,-1,42,44,46,48,-1,50,52,54,56,58,60,62,-1,64,66,68,70,-1,72,74,76,78,-1,80,82,-1,84,86,88,90,92,94,96,98,-1,100,102,-1,-1,-1,-1,-1,-1,-1,-1,-1,-1,-1,-1,-1,-1,-1,-1,-1,-1,-1,-1,-1,-1,-1,-1,-1,-1,-1,-1,-1,-1,-1,-1,-1,-1,-1,-1,-1,-1,-1,-1,-1,-1,-1,-1,-1],"split_conditions":[5E-1,5.9962624E-1,9.99905E-1,9.976372E-1,9.992957E-1,5.004629E-1,9.534335E-1,2.6858252E-1,9.975462E-1,8.016268E-1,3.4201765E-1,4.9868113E-1,7.4861515E-1,4.0067613E-1,3.723442E-1,3.3194718E-1,9.1414046E-1,8.004526E-1,3.5365856E-1,2.6886666E-1,-4.1136813E-1,9.0169525E-1,1.25E-1,2.534805E-1,3.6589885E-1,-5.0559515E-1,9.7882223E-1,1.7707184E-1,2.421723E-1,1.9793151E-1,8.1034327E-1,8.1896925E-1,6.0555255E-1,-2.6997468E-1,8.585E-1,9.55E-1,5.3408134E-1,8.065E-1,-1.8821627E-1,7.494389E-1,6.031723E-1,2.512205E-2,9.615E-1,-3.0165944E-1,9.86E-1,1.6495055E-1,-4.36591E-1,4.9661487E-1,6.624031E-1,2.6867455E-1,8.536585E-2,9E-1,2.5642836E-1,2.5348617E-2,2.3402014E-1,3.1295708E-1,2.916667E-1,7.0449996E-1,2.159524E-1,-2.5984684E-1,-1.9651641E-1,-6.259449E-2,-1.8492024E-1,-2.6003942E-1,-3.1858698E-2,-5.76882E-2,1.875542E-1,-9.352147E-2,-3.3511266E-1,7.921452E-2,4.8585334E-1,-6.513026E-2,4.678251E-2,-8.8487685E-2,-2.0192216E-1,1.7452821E-1,1.4836719E-2,1.9934992E-1,-7.789695E-2,-8.75535E-2,2.1136492E-1,-1.5992016E-1,6.5774657E-3,5.835605E-2,1.5996996E-1,-2.655478E-1,-3.1615417E-2,-6.447135E-2,-1.987074E-1,2.1250072E-1,1.4630063E-2,1.90618E-1,-6.19393E-3,1.9845529E-1,-1.2438915E-1,9.017492E-2,-4.649063E-1,1.08183086E-1,2.2744821E-1,3.940697E-2,2.6858112E-1,4.783394E-2,-2.5544938E-1],"split_indices":[7,2,2,9,2,6,9,1,8,2,1,9,6,8,1,8,8,4,1,1,0,8,8,9,1,0,9,1,9,1,3,3,4,0,3,3,6,3,0,9,4,1,3,0,3,8,0,6,8,1,1,4,4,9,6,0,8,3,0,0,0,0,0,0,0,0,0,0,0,0,0,0,0,0,0,0,0,0,0,0,0,0,0,0,0,0,0,0,0,0,0,0,0,0,0,0,0,0,0,0,0,0,0],"split_type":[0,0,0,0,0,0,0,0,0,0,0,0,0,0,0,0,0,0,0,0,0,0,0,0,0,0,0,0,0,0,0,0,0,0,0,0,0,0,0,0,0,0,0,0,0,0,0,0,0,0,0,0,0,0,0,0,0,0,0,0,0,0,0,0,0,0,0,0,0,0,0,0,0,0,0,0,0,0,0,0,0,0,0,0,0,0,0,0,0,0,0,0,0,0,0,0,0,0,0,0,0,0,0],"sum_hessian":[3.7679463E3,1.4230105E3,2.3449358E3,4.9341556E2,9.295949E2,1.9382937E3,4.0664206E2,4.0311008E2,9.030546E1,6.5999133E2,2.6960358E2,1.5368407E3,4.0145297E2,3.084976E2,9.814447E1,2.7521347E2,1.2789663E2,8.075425E1,9.551207E0,6.417298E2,1.826156E1,2.3966814E2,2.9935429E1,5.8554553E2,9.5129517E2,1.362816E1,3.878248E2,8.2747795E1,2.257498E2,9.4493515E1,3.6509557E0,7.364764E1,2.0156583E2,1.0467164E2,2.322499E1,5.9960247E1,2.0794004E1,8.472207E0,1.0789994E0,4.5255008E2,1.891797E2,1.9162225E2,4.8045883E1,3.2273986E0,2.670803E1,5.773075E2,8.238025E0,9.01176E2,5.0119175E1,3.0850558E2,7.931922E1,3.4431473E1,4.8316322E1,4.9928333E1,1.7582147E2,4.9576954E1,4.491656E1,2.1541557E0,1.4968E0,4.414173E1,2.9505903E1,1.1095041E2,9.061542E1,1.5348961E1,7.8760295E0,5.0703316E1,9.256928E0,1.355793E1,7.236075E0,5.530107E0,2.9421003E0,2.6556464E2,1.8698547E2,1.0998151E2,7.919819E1,2.4334806E1,1.6728745E2,4.2237846E1,5.808034E0,2.5181803E1,1.526227E0,6.125844E1,5.160491E2,5.7734467E2,3.2383136E2,2.1567677E1,2.8551498E1,2.2479556E2,8.3710014E1,2.0932888E1,5.8386333E1,2.9482641E1,4.9488325E0,1.020438E1,3.8111942E1,4.856161E1,1.3667223E0,3.936079E1,1.3646068E2,8.77124E0,3.614532E1,1.1026621E0,1.0514936E0],"tree_param":{"num_deleted":"0","num_feature":"11","num_nodes":"103","size_leaf_vector":"0"}},{"base_weights":[-4.174799E-3,-2.2631611E-1,1.11535326E-1,-1.9819841E-1,-1.1341714E0,2.3724857E-1,-8.525868E-2,-3.5141948E-1,-2.6787225E-2,3.1758588E-2,3.579626E-1,-1.7290758E0,-3.7864476E-2,-3.0116177E-1,-1.150154E0,2.7346423E-1,-1.4337258E-1,3.2757264E-1,-5.5947114E-2,2.2041345E-1,5.4237413E-1,-1.2058975E0,-2.067547E0,-3.6035928E-1,5.441519E-2,-5.540053E-1,-1.5636797E-1,5.5146235E-1,6.382857E-2,-2.8647804E-1,1.0884871E-1,-1.3823302E-1,4.7147992E-1,5.3307377E-2,-3.8433444E-1,2.6777962E-1,-6.2556064E-1,4.663442E-1,8.051459E-1,-3.220186E-1,-1.3321607E0,-7.3749356E-2,3.1033581E-1,-6.908505E-1,-2.959783E-1,-6.931901E-2,-4.3178326E-1,3.2608584E-1,8.93657E-1,-4.9816716E-1,1.8666098E-1,-1.4895518E-1,-5.489943E-1,4.7540712E-1,-2.5259897E-2,-4.8372775E-1,2.2466473E-1,-4.620963E-1,5.226603E-1,-1.04793906E-1,3.5457873E-1,-1.3139203E0,-3.1711996E-1,2.814846E-1,-1.7011142E0,-1.0447636E0,-2.1202093E-1,5.7340324E-1,2.524128E-1,4.800599E-1,8.438038E-1,3.151716E-1,-3.7222266E-1,-2.4511915E-1,1.2548645E-1,8.792725E-1,2.2898838E-1],"categories":[],"categories_nodes":[],"categories_segments":[],"categories_sizes":[],"default_left":[1,1,1,1,0,1,1,1,1,1,1,1,1,1,0,1,1,1,1,1,1,0,0,1,1,1,1,1,1,1,1,1,1,1,1,1,1,1,1,1,0,1,1,0,0,0,0,0,0,0,0,0,0,0,0,0,0,0,0,0,0,0,0,0,0,0,0,0,0,0,0,0,0,0,0,0,0],"id":8,"left_children":[1,3,5,7,-1,9,11,13,15,17,19,21,23,25,-1,27,29,31,33,35,37,-1,-1,39,41,43,45,47,49,51,53,55,57,59,61,63,65,67,69,71,-1,73,75,-1,-1,-1,-1,-1,-1,-1,-1,-1,-1,-1,-1,-1,-1,-1,-1,-1,-1,-1,-1,-1,-1,-1,-1,-1,-1,-1,-1,-1,-1,-1,-1,-1,-1],"loss_changes":[9.22493E1,3.1151546E1,5.8400116E1,3.1334835E1,0E0,3.5713524E1,7.165413E1,2.4946358E1,1.9794798E1,1.3874103E1,2.2890793E1,2.0711136E0,2.6678337E1,2.1664555E1,0E0,9.183957E0,1.4727826E1,8.261709E0,1.4829994E1,2.1055353E1,7.353607E0,0E0,0E0,7.001686E0,2.2896564E1,7.420677E0,9.060744E0,4.9434013E0,6.3966126E0,9.30674E0,7.2933264E0,3.8241072E0,4.715851E0,1.4831831E1,6.0294847E0,1.381789E1,4.6218367E0,6.781891E0,6.68663E-1,6.2970314E0,0E0,1.5923425E1,1.0577423E1,0E0,0E0,0E0,0E0,0E0,0E0,0E0,0E0,0E0,0E0,0E0,0E0,0E0,0E0,0E0,0E0,0E0,0E0,0E0,0E0,0E0,0E0,0E0,0E0,0E0,0E0,0E0,0E0,0E0,0E0,0E0,0E0,0E0,0E0],"parents":[2147483647,0,0,1,1,2,2,3,3,5,5,6,6,7,7,8,8,9,9,10,10,11,11,12,12,13,13,15,15,16,16,17,17,18,18,19,19,20,20,23,23,24,24,25,25,26,26,27,27,28,28,29,29,30,30,31,31,32,32,33,33,34,34,35,35,36,36,37,37,38,38,39,39,41,41,42,42],"right_children":[2,4,6,8,-1,10,12,14,16,18,20,22,24,26,-1,28,30,32,34,36,38,-1,-1,40,42,44,46,48,50,52,54,56,58,60,62,64,66,68,70,72,-1,74,76,-1,-1,-1,-1,-1,-1,-1,-1,-1,-1,-1,-1,-1,-1,-1,-1,-1,-1,-1,-1,-1,-1,-1,-1,-1,-1,-1,-1,-1,-1,-1,-1,-1,-1],"split_conditions":[5.9962624E-1,4.009251E-1,6.004869E-1,3.999468E-1,-3.4025142E-1,5E-1,7.9899096E-1,2.0029117E-1,4.053697E-1,7.343152E-2,7.453182E-1,5E-1,2.4628296E-1,5E-1,-3.4504622E-1,1.464868E-1,8.323783E-1,2.3544559E-1,5.039739E-1,3.6589885E-1,9.677211E-1,-3.6176926E-1,-6.202642E-1,1.0465617E-2,8.330031E-1,7.4680376E-1,2.6868612E-1,8.5249996E-1,2.389777E-1,2.4441881E-1,9.882577E-2,6.459234E-1,4.1666668E-2,4.9937266E-1,7.493317E-1,6.6720957E-1,3.75E-1,4.1354945E-1,5.7449996E-1,7.2102115E-4,-3.9964822E-1,5E-1,2.5515538E-2,-2.0725515E-1,-8.8793494E-2,-2.0795703E-2,-1.2953499E-1,9.782576E-2,2.6809713E-1,-1.4945015E-1,5.5998296E-2,-4.4686556E-2,-1.646983E-1,1.4262214E-1,-7.577969E-3,-1.4511833E-1,6.739942E-2,-1.386289E-1,1.567981E-1,-3.1438172E-2,1.0637362E-1,-3.941761E-1,-9.5135994E-2,8.444539E-2,-5.1033425E-1,-3.134291E-1,-6.3606285E-2,1.7202097E-1,7.572384E-2,1.4401798E-1,2.5314116E-1,9.455148E-2,-1.11666806E-1,-7.353575E-2,3.7645936E-2,2.6378176E-1,6.8696514E-2],"split_indices":[2,2,4,2,0,7,4,2,4,1,8,7,9,7,0,1,8,6,6,1,9,0,0,9,8,9,1,3,9,1,1,8,8,6,6,8,9,4,3,1,0,10,1,0,0,0,0,0,0,0,0,0,0,0,0,0,0,0,0,0,0,0,0,0,0,0,0,0,0,0,0,0,0,0,0,0,0],"split_type":[0,0,0,0,0,0,0,0,0,0,0,0,0,0,0,0,0,0,0,0,0,0,0,0,0,0,0,0,0,0,0,0,0,0,0,0,0,0,0,0,0,0,0,0,0,0,0,0,0,0,0,0,0,0,0,0,0,0,0,0,0,0,0,0,0,0,0,0,0,0,0,0,0,0,0,0,0],"sum_hessian":[3.5869263E3,1.2281525E3,2.358774E3,1.1924391E3,3.5713398E1,1.439199E3,9.195749E2,6.29073E2,5.633661E2,5.3305286E2,9.061461E2,2.4775637E1,8.9479926E2,5.931294E2,3.5943626E1,1.5719186E2,4.061742E2,1.21276436E2,4.1177643E2,5.202766E2,3.858695E2,1.1524651E1,1.3250987E1,1.9843E2,6.9636926E2,2.1495024E2,3.7817914E2,6.68764E1,9.031547E1,2.590554E2,1.4711879E2,2.8633535E1,9.26429E1,3.096076E2,1.0216881E2,4.9333804E2,2.6938574E1,3.0142926E2,8.444024E1,1.9217928E2,6.250729E0,4.644736E2,2.3189563E2,1.3936194E2,7.55883E1,2.883072E2,8.987195E1,4.149793E1,2.5378473E1,1.5651125E1,7.466434E1,1.710276E2,8.80278E1,3.8725536E1,1.0839326E2,1.4497917E1,1.4135618E1,4.397619E0,8.8245285E1,2.0347833E2,1.06129265E2,5.6385593E0,9.653025E1,4.9077887E2,2.5591574E0,1.261968E1,1.4318894E1,1.9977455E2,1.0165469E2,1.0400169E1,7.404007E1,1.3650411E1,1.7852885E2,2.4957498E2,2.1489862E2,2.7781996E1,2.0411365E2],"tree_param":{"num_deleted":"0","num_feature":"11","num_nodes":"77","size_leaf_vector":"0"}},{"base_weights":[-4.5444905E-3,-7.2720975E-2,2.7068985E-1,-5.9179064E-2,-1.651959E0,1.9680867E-1,6.151306E-1,2.4803838E-1,-1.2320558E-1,-1.2509534E0,-1.9622889E0,7.425296E-2,4.1403618E-1,3.518652E-1,7.819126E-1,5.795111E-2,3.5906515E-1,-1.652061E0,-1.0262373E-1,-1.3353809E0,-2.552904E0,9.7208925E-2,-1.3803989E0,7.47737E-1,2.964498E-1,4.502379E-1,-4.493181E-2,3.4631285E-1,8.8677484E-1,-1.2523925E-1,2.795066E-1,3.7171936E-1,-1.3996849E0,-1.149031E0,-2.0624964E0,-1.9805318E-1,7.9628505E-2,1.9725229E-1,-1.6264047E-1,-2.037754E-1,8.524752E-1,5.5378455E-1,1.1454925E-1,-1.8590587E-1,4.9965122E-1,-8.0205065E-1,5.494342E-1,6.649119E-1,-6.27816E-1,5.6750214E-1,9.589221E-1,-3.4568444E-1,1.1019325E-1,-1.6946258E-2,4.8816675E-1,4.462131E-1,9.6786074E-2,-1.5770446E0,-3.0260835E0,-1.7782755E-1,-1.2808276E0,-1.8493168E-1,1.6296814E-1,-7.0824355E-2,3.545196E-1,-5.231492E-1,-6.367499E-2,-6.976652E-1,5.437828E-1,5.476058E-1,9.6808726E-1,8.449058E-1,1.866833E-1,-1.2799703E0,1.6222422E-1,3.015901E-1,-5.282393E-1,7.378979E-1,3.251143E-1,-7.688676E-2,-1.4398109E0,-2.234407E-2,8.535792E-1,4.3412875E-3,8.58777E-1,2.9362085E-1,-1.2230908E0,8.5351574E-1,-2.190011E-2],"categories":[],"categories_nodes":[],"categories_segments":[],"categories_sizes":[],"default_left":[1,1,1,1,1,1,1,1,1,0,1,1,1,1,1,1,1,1,1,0,0,1,0,1,1,1,1,1,1,1,1,1,0,0,1,1,1,1,1,1,1,1,1,1,1,1,1,1,1,1,0,0,0,0,0,0,0,0,0,0,0,0,0,0,0,0,0,0,0,0,0,0,0,0,0,0,0,0,0,0,0,0,0,0,0,0,0,0,0],"id":9,"left_children":[1,3,5,7,9,11,13,15,17,-1,19,21,23,25,27,29,31,33,35,-1,-1,37,-1,39,41,43,45,47,49,51,53,55,-1,-1,57,59,61,63,65,67,69,71,73,75,77,79,81,83,85,87,-1,-1,-1,-1,-1,-1,-1,-1,-1,-1,-1,-1,-1,-1,-1,-1,-1,-1,-1,-1,-1,-1,-1,-1,-1,-1,-1,-1,-1,-1,-1,-1,-1,-1,-1,-1,-1,-1,-1],"loss_changes":[6.469223E1,5.899344E1,1.7296448E1,5.393907E1,4.640808E-1,1.5011818E1,5.0118866E0,9.961653E0,7.121705E1,0E0,8.3547974E-1,1.2237478E1,7.766613E0,1.9140186E0,3.0225906E0,7.1618614E0,7.1613617E0,3.838234E0,3.8966934E1,0E0,0E0,9.332326E0,0E0,5.394684E0,7.0606623E0,1.3178287E0,5.1872215E0,5.3161383E0,7.9437256E-1,5.0625477E0,4.9435973E0,6.0408096E0,0E0,0E0,2.3850098E0,3.196925E1,1.7015652E1,1.0934224E1,3.53437E0,2.5953426E0,1.1400642E0,6.550272E0,6.2195373E0,7.496872E-1,1.2750053E0,2.222656E0,1.1498699E0,1.5816326E0,2.7749813E0,2.237327E0,0E0,0E0,0E0,0E0,0E0,0E0,0E0,0E0,0E0,0E0,0E0,0E0,0E0,0E0,0E0,0E0,0E0,0E0,0E0,0E0,0E0,0E0,0E0,0E0,0E0,0E0,0E0,0E0,0E0,0E0,0E0,0E0,0E0,0E0,0E0,0E0,0E0,0E0,0E0],"parents":[2147483647,0,0,1,1,2,2,3,3,4,4,5,5,6,6,7,7,8,8,10,10,11,11,12,12,13,13,14,14,15,15,16,16,17,17,18,18,21,21,23,23,24,24,25,25,26,26,27,27,28,28,29,29,30,30,31,31,34,34,35,35,36,36,37,37,38,38,39,39,40,40,41,41,42,42,43,43,44,44,45,45,46,46,47,47,48,48,49,49],"right_children":[2,4,6,8,10,12,14,16,18,-1,20,22,24,26,28,30,32,34,36,-1,-1,38,-1,40,42,44,46,48,50,52,54,56,-1,-1,58,60,62,64,66,68,70,72,74,76,78,80,82,84,86,88,-1,-1,-1,-1,-1,-1,-1,-1,-1,-1,-1,-1,-1,-1,-1,-1,-1,-1,-1,-1,-1,-1,-1,-1,-1,-1,-1,-1,-1,-1,-1,-1,-1,-1,-1,-1,-1,-1,-1],"split_conditions":[9.9945474E-1,7.50399E-1,9.936099E-1,2.0001864E-1,5E-1,8.3190376E-1,5E-1,5E-1,3.9982343E-1,-3.7528604E-1,5.9894484E-1,7.506286E-1,1.0390751E-1,8.965E-1,2.0796148E-1,5E-1,9.974634E-1,5E-1,7.9961634E-1,-4.006143E-1,-7.658712E-1,2.68333E-1,-4.141197E-1,5.5649996E-1,8.343652E-1,5.5532537E-2,3.75E-1,8.115192E-1,2.916667E-1,7.5341743E-1,7.29E-1,5.445761E-1,-4.1990548E-1,-3.4470934E-1,7.9998136E-1,6.004884E-1,3.2784677E-1,7.05E-1,1.6520005E-1,5E-1,5E-1,8.06E-1,9.165358E-1,5.834024E-1,5.329878E-1,5E-1,5E-1,6.5199995E-1,8.053433E-1,2.5609756E-1,2.8767663E-1,-1.0370534E-1,3.3057977E-2,-5.0838776E-3,1.4645003E-1,1.3386394E-1,2.9035823E-2,-4.731134E-1,-9.0782505E-1,-5.334827E-2,-3.8424832E-1,-5.5479508E-2,4.8890445E-2,-2.1247307E-2,1.0635588E-1,-1.5694477E-1,-1.9102497E-2,-2.0929958E-1,1.6313484E-1,1.6428176E-1,2.904262E-1,2.5347176E-1,5.600499E-2,-3.839911E-1,4.8667267E-2,9.0477034E-2,-1.584718E-1,2.2136937E-1,9.75343E-2,-2.3066029E-2,-4.3194327E-1,-6.7032212E-3,2.5607377E-1,1.3023863E-3,2.5763312E-1,8.808626E-2,-3.6692724E-1,2.5605473E-1,-6.5700333E-3],"split_indices":[9,9,2,4,7,8,7,7,4,0,2,8,1,3,6,10,3,7,2,0,0,1,0,3,8,8,6,4,8,2,3,6,0,0,2,2,8,3,8,10,7,3,8,6,8,0,0,3,3,1,0,0,0,0,0,0,0,0,0,0,0,0,0,0,0,0,0,0,0,0,0,0,0,0,0,0,0,0,0,0,0,0,0,0,0,0,0,0,0],"split_type":[0,0,0,0,0,0,0,0,0,0,0,0,0,0,0,0,0,0,0,0,0,0,0,0,0,0,0,0,0,0,0,0,0,0,0,0,0,0,0,0,0,0,0,0,0,0,0,0,0,0,0,0,0,0,0,0,0,0,0,0,0,0,0,0,0,0,0,0,0,0,0,0,0,0,0,0,0,0,0,0,0,0,0,0,0,0,0,0,0],"sum_hessian":[3.445536E3,2.762092E3,6.8344385E2,2.7396372E3,2.2454817E1,5.6403253E2,1.1941132E2,4.719953E2,2.2676418E3,1.1991085E1,1.0463732E1,3.6145065E2,2.0258188E2,4.7516403E1,7.189492E1,1.7459528E2,2.9740002E2,2.9069118E1,2.2385728E3,6.6578083E0,3.8059235E0,3.5675388E2,4.6967845E0,5.1387936E1,1.5119394E2,3.796865E1,9.54775E0,1.4784089E1,5.7110832E1,9.581039E1,7.878488E1,2.9605853E2,1.3414978E0,1.4768446E1,1.4300673E1,1.469197E3,7.693758E2,2.57757E2,9.899688E1,5.001885E0,4.638605E1,6.17673E1,8.942664E1,2.5375938E0,3.5431057E1,4.045309E0,5.502442E0,1.1379676E1,3.4044132E0,1.2160951E1,4.4949883E1,4.923827E1,4.657212E1,3.2925262E1,4.585962E1,2.3245216E2,6.3606365E1,1.1263034E1,3.037639E0,1.4433993E3,2.5797665E1,1.8401247E2,5.8536334E2,9.5506676E1,1.622503E2,2.03996E1,7.859728E1,3.052156E0,1.9497288E0,1.4331198E1,3.205485E1,3.3722713E1,2.8044586E1,2.1017392E0,8.7324905E1,1.0959438E0,1.4416499E0,1.3616499E1,2.181456E1,2.417291E0,1.6280179E0,2.2323203E0,3.2701216E0,2.8139365E0,8.565739E0,1.5350412E0,1.869372E0,7.8860555E0,4.274895E0],"tree_param":{"num_deleted":"0","num_feature":"11","num_nodes":"89","size_leaf_vector":"0"}},{"base_weights":[-3.7193692E-3,-2.4994668E-1,5.7365526E-2,-2.1194814E-1,-1.3330233E0,-2.0778167E-1,1.11426E-1,-4.0316927E-1,-9.890902E-2,-1.5443604E-1,-1.5042665E0,1.5956324E-1,-2.415206E-1,-5.908152E-1,-1.2235231E-1,1.496642E-1,-1.7963694E-1,-2.3611265E-1,2.3422836E-1,-1.0563039E0,-1.7691811E0,4.2910755E-2,2.8704438E-1,-1.5153619E0,-1.4914113E-1,-4.6315965E-1,-8.393981E-1,-1.9645519E-3,-5.333324E-1,2.807936E-1,-3.8959143E-1,1.884026E-1,-2.4096845E-1,-8.181155E-1,-1.7332321E-1,3.4342843E-1,-2.7720496E-1,-1.0834011E0,-2.2555833E0,2.3071747E-1,-7.586087E-2,1.0355907E-1,3.924954E-1,-1.094405E0,-1.8520414E0,4.243354E-2,-3.510129E-1,-6.786776E-1,-2.3085505E-1,-9.0984416E-1,-5.2009803E-1,-3.2661065E-1,5.601203E-1,3.085096E-1,-6.176009E-1,-6.7480963E-1,3.2687458E-1,-6.991741E-1,3.5752615E-1,8.9845765E-1,-7.03402E-3,-8.676668E-2,-3.4666133E-1,-6.500375E-1,-1.2847745E0,-3.987801E-1,-4.2574055E-2,6.614972E-1,7.362884E-2,2.1441278E-1,-5.3752816E-1,8.315344E-2,3.8344425E-1,-1.4756023E0,-5.5820074E-2,4.047736E-2,5.09976E-1,6.0608786E-1,3.1195706E-1,-1.3662095E-1,2.1987107E-1,-1.1717234E0,-2.4395487E-1],"categories":[],"categories_nodes":[],"categories_segments":[],"categories_sizes":[],"default_left":[1,1,1,1,0,1,1,1,1,1,1,1,1,1,1,1,1,1,1,0,1,1,1,1,1,1,1,1,1,1,1,1,1,1,1,1,1,0,0,1,1,1,1,0,0,1,1,0,0,0,0,0,0,0,0,0,0,0,0,0,0,0,0,0,0,0,0,0,0,0,0,0,0,0,0,0,0,0,0,0,0,0,0],"id":10,"left_children":[1,3,5,7,-1,9,11,13,15,17,19,21,23,25,27,29,31,33,35,-1,37,39,41,43,45,47,49,51,53,55,57,59,61,63,65,67,69,-1,-1,71,73,75,77,-1,-1,79,81,-1,-1,-1,-1,-1,-1,-1,-1,-1,-1,-1,-1,-1,-1,-1,-1,-1,-1,-1,-1,-1,-1,-1,-1,-1,-1,-1,-1,-1,-1,-1,-1,-1,-1,-1,-1],"loss_changes":[5.0569805E1,2.7221703E1,3.8637844E1,1.3941877E1,0E0,3.1346136E1,3.806762E1,1.2573765E1,8.211138E0,1.4012152E1,2.5899887E-1,2.9287987E1,3.143357E1,4.1680527E0,4.817547E0,7.2180805E0,7.004943E0,1.3153048E1,4.3871827E0,0E0,8.203201E-1,2.299329E1,1.817186E1,5.358887E-1,9.758923E0,4.705101E0,5.9503555E-1,1.4111413E1,1.7555828E0,3.807106E0,4.8950143E0,6.1957507E0,4.284316E0,1.922512E0,9.700513E0,5.424156E0,1.916581E0,0E0,0E0,8.966875E0,1.7638979E1,8.821458E0,1.0087418E1,0E0,0E0,4.1655803E0,1.0502828E1,0E0,0E0,0E0,0E0,0E0,0E0,0E0,0E0,0E0,0E0,0E0,0E0,0E0,0E0,0E0,0E0,0E0,0E0,0E0,0E0,0E0,0E0,0E0,0E0,0E0,0E0,0E0,0E0,0E0,0E0,0E0,0E0,0E0,0E0,0E0,0E0],"parents":[2147483647,0,0,1,1,2,2,3,3,5,5,6,6,7,7,8,8,9,9,10,10,11,11,12,12,13,13,14,14,15,15,16,16,17,17,18,18,20,20,21,21,22,22,23,23,24,24,25,25,26,26,27,27,28,28,29,29,30,30,31,31,32,32,33,33,34,34,35,35,36,36,39,39,40,40,41,41,42,42,45,45,46,46],"right_children":[2,4,6,8,-1,10,12,14,16,18,20,22,24,26,28,30,32,34,36,-1,38,40,42,44,46,48,50,52,54,56,58,60,62,64,66,68,70,-1,-1,72,74,76,78,-1,-1,80,82,-1,-1,-1,-1,-1,-1,-1,-1,-1,-1,-1,-1,-1,-1,-1,-1,-1,-1,-1,-1,-1,-1,-1,-1,-1,-1,-1,-1,-1,-1,-1,-1,-1,-1,-1,-1],"split_conditions":[2.4994466E-1,9.346355E-5,2.4977604E-1,5E-1,-3.9990702E-1,1.6697405E-1,3.4174466E-1,7.9961634E-1,9.7798124E-2,9.938575E-1,5E-1,5E-1,3.6576754E-1,2.6925927E-1,5.0063485E-1,5.199541E-1,2.147015E-1,5.5850005E-1,8.0938625E-1,-3.1689116E-1,5.9393954E-1,4.0180945E-1,5E-1,5E-1,3.6590686E-1,5E-1,3.9023256E-1,4.6091086E-1,2.48238E-2,4.1666668E-2,8.215703E-1,6.265E-1,5E-1,5.4928184E-1,5E-1,1.7817909E-1,8.536585E-2,-3.2502034E-1,-6.76675E-1,7.4680376E-1,5.9940815E-1,9.984926E-1,7.460995E-2,-3.2832152E-1,-5.5561244E-1,5E-1,3.8983524E-1,-2.036033E-1,-6.9256514E-2,-2.7295327E-1,-1.5602942E-1,-9.7983204E-2,1.6803609E-1,9.255288E-2,-1.8528028E-1,-2.024429E-1,9.806238E-2,-2.0975225E-1,1.0725785E-1,2.695373E-1,-2.110206E-3,-2.6030006E-2,-1.039984E-1,-1.9501127E-1,-3.854324E-1,-1.1963404E-1,-1.2772217E-2,1.9844916E-1,2.2088654E-2,6.4323835E-2,-1.6125846E-1,2.4946034E-2,1.1503328E-1,-4.426807E-1,-1.6746024E-2,1.2143209E-2,1.5299281E-1,1.8182637E-1,9.358712E-2,-4.098629E-2,6.596132E-2,-3.5151702E-1,-7.3186465E-2],"split_indices":[9,9,8,7,0,8,1,2,1,2,7,10,1,1,6,6,4,3,4,0,2,4,7,7,1,10,1,6,1,8,8,3,0,3,7,1,1,0,0,9,4,8,1,0,0,10,1,0,0,0,0,0,0,0,0,0,0,0,0,0,0,0,0,0,0,0,0,0,0,0,0,0,0,0,0,0,0,0,0,0,0,0,0],"split_type":[0,0,0,0,0,0,0,0,0,0,0,0,0,0,0,0,0,0,0,0,0,0,0,0,0,0,0,0,0,0,0,0,0,0,0,0,0,0,0,0,0,0,0,0,0,0,0,0,0,0,0,0,0,0,0,0,0,0,0,0,0,0,0,0,0,0,0,0,0,0,0,0,0,0,0,0,0,0,0,0,0,0,0],"sum_hessian":[3.360229E3,6.6730304E2,2.692926E3,6.4584015E2,2.146289E1,4.555879E2,2.2373381E3,2.389897E2,4.0685043E2,4.3865784E2,1.693006E1,1.9692996E3,2.6803845E2,1.4259906E2,9.639065E1,9.952973E1,3.0732068E2,3.6280746E2,7.585037E1,8.144797E0,8.785262E0,1.0290222E3,9.4027734E2,1.7082352E1,2.509561E2,9.6107735E1,4.649132E1,7.532933E1,2.1061321E1,8.044695E1,1.9082785E1,4.360184E1,2.6371884E2,3.4158524E1,3.2864893E2,6.277524E1,1.3075129E1,4.984698E0,3.8005648E0,3.9828873E2,6.307335E2,3.4388965E2,5.963877E2,9.479958E0,7.602393E0,1.2916722E2,1.2178887E2,4.8858406E1,4.724933E1,3.6572872E1,9.918449E0,4.8015633E1,2.7313696E1,1.6742762E0,1.9387045E1,3.0731704E0,7.737378E1,1.353745E1,5.5453343E0,8.6343975E0,3.4967445E1,1.0798862E2,1.5573024E2,2.6872673E1,7.2858496E0,1.1988158E2,2.0876736E2,2.814412E1,3.4631123E1,4.5876875E0,8.487441E0,2.0335367E2,1.9493507E2,7.8778577E0,6.2285565E2,2.986366E2,4.525306E1,1.6151494E2,4.3487274E2,6.440517E1,6.4762054E1,1.2906031E1,1.08882835E2],"tree_param":{"num_deleted":"0","num_feature":"11","num_nodes":"83","size_leaf_vector":"0"}},{"base_weights":[-4.9067093E-3,-2.566458E-1,4.7085773E-2,-2.152768E-1,-1.0893304E0,9.887672E-2,-1.9160359E-1,-4.0905625E-1,-1.2169482E-1,2.4165854E-1,7.0093432E-3,-1.4801494E0,-8.7027974E-2,-2.9011708E-1,-6.931358E-1,-3.0582023E-1,-1.6798155E-2,1.3689733E-1,3.8788262E-1,-1.4487561E0,2.1914324E-2,-1.2092208E0,-1.716086E0,-3.783013E-1,7.2394563E-3,-5.036785E-1,-6.312328E-2,-8.653704E-1,-5.028604E-1,-4.7248918E-1,-1.3996194E-1,5.9695944E-2,-3.589316E-1,1.5140504E-1,-1.5623128E0,2.1535233E-1,5.1015735E-1,7.907996E-2,-1.8978609E-1,-3.337275E-1,-1.3790181E0,-1.2333478E-1,1.6201554E-1,-8.18088E-1,-2.754978E-1,4.106222E-1,-1.5975025E-1,-7.0091885E-1,1.04698725E-1,-2.546282E-1,-6.0721433E-1,1.6239916E-1,-4.9182144E-1,1.4887704E-1,-2.4641487E-1,-1.2191707E0,-2.4160305E-1,-2.4316403E-1,2.0103194E-1,3.0864766E-1,-7.553593E-2,3.774691E-1,7.444832E-1,-3.4724496E-2,2.8508762E-1,-2.9836318E-1,2.3824543E-1,-5.2690476E-1,-1.4848714E-1,-2.1365131E-1,2.3873E-1,2.61375E-1,-1.282405E-1],"categories":[],"categories_nodes":[],"categories_segments":[],"categories_sizes":[],"default_left":[1,1,1,1,0,1,1,1,1,1,1,1,1,1,1,1,1,1,1,0,1,0,0,1,1,1,1,0,1,1,1,1,1,1,0,1,1,1,1,1,0,1,1,0,0,0,0,0,0,0,0,0,0,0,0,0,0,0,0,0,0,0,0,0,0,0,0,0,0,0,0,0,0],"id":11,"left_children":[1,3,5,7,-1,9,11,13,15,17,19,21,23,25,27,29,31,33,35,-1,37,-1,-1,39,41,43,45,-1,47,49,51,53,55,57,-1,59,61,63,65,67,-1,69,71,-1,-1,-1,-1,-1,-1,-1,-1,-1,-1,-1,-1,-1,-1,-1,-1,-1,-1,-1,-1,-1,-1,-1,-1,-1,-1,-1,-1,-1,-1],"loss_changes":[4.2813847E1,1.9053928E1,3.353504E1,9.646318E0,0E0,2.9229439E1,6.505498E1,5.667967E0,6.986246E0,1.3311573E1,2.947717E1,2.4202728E-1,1.2317122E1,5.987051E0,1.2212353E0,3.5639648E0,6.0843496E0,1.2804768E1,7.5609627E0,0E0,1.6283459E1,0E0,0E0,4.4320135E0,6.8874707E0,4.3538284E0,2.8730628E0,0E0,3.2502756E0,1.7555218E0,7.233469E0,5.22875E0,3.992333E0,9.965384E0,0E0,4.163148E0,6.312687E0,2.4841648E1,1.3367943E1,3.7263222E0,0E0,6.096772E0,4.530403E0,0E0,0E0,0E0,0E0,0E0,0E0,0E0,0E0,0E0,0E0,0E0,0E0,0E0,0E0,0E0,0E0,0E0,0E0,0E0,0E0,0E0,0E0,0E0,0E0,0E0,0E0,0E0,0E0,0E0,0E0],"parents":[2147483647,0,0,1,1,2,2,3,3,5,5,6,6,7,7,8,8,9,9,10,10,11,11,12,12,13,13,14,14,15,15,16,16,17,17,18,18,20,20,23,23,24,24,25,25,26,26,28,28,29,29,30,30,31,31,32,32,33,33,35,35,36,36,37,37,38,38,39,39,41,41,42,42],"right_children":[2,4,6,8,-1,10,12,14,16,18,20,22,24,26,28,30,32,34,36,-1,38,-1,-1,40,42,44,46,-1,48,50,52,54,56,58,-1,60,62,64,66,68,-1,70,72,-1,-1,-1,-1,-1,-1,-1,-1,-1,-1,-1,-1,-1,-1,-1,-1,-1,-1,-1,-1,-1,-1,-1,-1,-1,-1,-1,-1,-1,-1],"split_conditions":[3.999468E-1,2.0029117E-1,8.000456E-1,5E-1,-3.2679915E-1,1.4634594E-1,9.994775E-1,2.6862592E-1,7.09782E-1,7.466055E-1,1.705038E-1,5E-1,2.4719875E-1,6.6556954E-1,4.9770665E-1,4.952392E-1,8.150545E-1,5.03879E-1,5E-1,-4.3462685E-1,5.0307834E-1,-3.6276624E-1,-5.148258E-1,1.5976481E-2,7.860584E-1,4.9401075E-1,6.722403E-1,-2.5961113E-1,9.863777E-1,1.2313387E-1,5.004629E-1,5.018209E-1,9.992666E-1,1.660344E-1,-4.6869388E-1,5.7934654E-1,7.985353E-1,4.9937266E-1,9.945652E-1,5E-1,-4.1370544E-1,9.9499816E-1,5.112234E-1,-2.454264E-1,-8.264934E-2,1.2318667E-1,-4.7925077E-2,-2.1027566E-1,3.1409618E-2,-7.638846E-2,-1.8216431E-1,4.871975E-2,-1.4754644E-1,4.4663113E-2,-7.392447E-2,-3.657512E-1,-7.248092E-2,-7.2949216E-2,6.0309585E-2,9.25943E-2,-2.266078E-2,1.13240734E-1,2.2334497E-1,-1.041735E-2,8.552629E-2,-8.950896E-2,7.147363E-2,-1.5807143E-1,-4.4546142E-2,-6.40954E-2,7.1619004E-2,7.84125E-2,-3.847215E-2],"split_indices":[2,2,4,7,0,1,4,1,3,9,1,7,6,8,6,6,4,9,7,0,6,0,0,6,3,9,8,0,9,1,6,6,4,8,0,6,2,6,2,10,0,2,6,0,0,0,0,0,0,0,0,0,0,0,0,0,0,0,0,0,0,0,0,0,0,0,0,0,0,0,0,0,0],"split_type":[0,0,0,0,0,0,0,0,0,0,0,0,0,0,0,0,0,0,0,0,0,0,0,0,0,0,0,0,0,0,0,0,0,0,0,0,0,0,0,0,0,0,0,0,0,0,0,0,0,0,0,0,0,0,0,0,0,0,0,0,0,0,0,0,0,0,0,0,0,0,0,0,0],"sum_hessian":[3.2691707E3,5.5893976E2,2.710231E3,5.33684E2,2.5255686E1,2.227494E3,4.8273706E2,1.7270146E2,3.609826E2,8.714466E2,1.3560472E3,3.5249584E1,4.474875E2,1.2315843E2,4.9543026E1,1.3031857E2,2.3066402E2,5.08833E2,3.6261356E2,1.2768332E1,1.3432789E3,1.9259209E1,1.5990375E1,1.0867713E2,3.3881036E2,6.2828705E1,6.0329723E1,2.4142023E1,2.5401005E1,6.4078316E1,6.624026E1,1.891904E2,4.1473618E1,5.0542862E2,3.40441E0,1.5154457E2,2.1106898E2,1.0581676E3,2.8511142E2,1.0531949E2,3.3576376E0,1.8388338E2,1.5492697E2,2.5334763E1,3.7493942E1,9.669969E0,5.0659756E1,1.9040365E1,6.360639E0,2.5588963E1,3.8489353E1,3.5915596E1,3.0324661E1,1.4690526E2,4.2285137E1,3.850575E0,3.7623043E1,5.6032295E1,4.493963E2,1.1469718E2,3.684739E1,1.364272E2,7.4641785E1,6.8215643E2,3.7601108E2,2.2766377E2,5.744764E1,5.065239E1,5.46671E1,1.474997E2,3.638368E1,1.1549174E2,3.9435238E1],"tree_param":{"num_deleted":"0","num_feature":"11","num_nodes":"73","size_leaf_vector":"0"}},{"base_weights":[-5.6148316E-3,-1.2718983E-1,6.6005714E-2,-3.3900656E-2,-2.5998965E-1,2.3015091E-2,3.211369E-1,1.1812557E-2,-3.5974753E-1,-1.0835197E0,-2.3396753E-1,3.3151984E-2,-1.7334872E0,2.4490471E-1,6.636683E-1,-9.658381E-2,1.4355735E-1,-4.9872845E-1,-7.9861484E-2,-3.919474E-1,-1.3731766E-1,-1.7533107E-1,7.612574E-2,5.429534E-1,1.6133396E-1,9.464778E-1,4.350716E-1,3.605008E-1,-1.5052268E-1,2.5623125E-1,-1.9878097E-1,-5.44328E-1,8.003513E-1,-4.8172474E-1,2.6058665E-1,-5.447283E-1,-1.8444854E-1,-2.5639597E-1,-9.796216E-3,-1.3520871E-1,-1.386527E0,1.1228294E-1,-1.8403065E-1,-2.4054348E-2,7.072434E-1,1.9513873E-2,4.3344826E-1,-1.0692948E-1,6.327194E-1,1.2601814E-1,7.33831E-1,-4.4653562E-1,-6.890896E-2,1.1805182E-1,5.0961214E-1,-5.0149E-1,1.1273752E-2,-7.658826E-1,-2.5019222E-1,-7.2548187E-1,-4.145048E-3,-4.189367E-1,4.919958E-1,-6.599984E-1,-4.1941318E-1,6.051985E-2,-4.5768687E-1,-4.0404287E-1,2.8062388E-2,5.996928E-1,-8.479223E-2,-5.428683E-1,-2.0299243E-2,4.9440064E-3,1.9824496E-1,-1.432132E0,-1.22287124E-1,-6.029343E-1,5.514395E-1,8.18615E-1,4.4542444E-1,4.536192E-2,-1.4049804E0,5.4809725E-1,-2.2437565E-1,2.5713056E-1,-6.614585E-1,7.354991E-2,8.2001233E-1],"categories":[],"categories_nodes":[],"categories_segments":[],"categories_sizes":[],"default_left":[1,1,1,1,1,1,1,1,1,0,1,1,0,1,1,1,1,1,1,1,1,1,1,1,1,0,1,1,1,1,1,1,0,1,1,1,1,1,1,1,0,1,1,1,1,1,1,1,1,0,0,0,0,0,0,0,0,0,0,0,0,0,0,0,0,0,0,0,0,0,0,0,0,0,0,0,0,0,0,0,0,0,0,0,0,0,0,0,0],"id":12,"left_children":[1,3,5,7,9,11,13,15,17,-1,19,21,-1,23,25,27,29,31,33,35,37,39,41,43,45,-1,47,49,51,53,55,57,-1,59,61,63,65,67,69,71,-1,73,75,77,79,81,83,85,87,-1,-1,-1,-1,-1,-1,-1,-1,-1,-1,-1,-1,-1,-1,-1,-1,-1,-1,-1,-1,-1,-1,-1,-1,-1,-1,-1,-1,-1,-1,-1,-1,-1,-1,-1,-1,-1,-1,-1,-1],"loss_changes":[2.7823048E1,1.4666464E1,2.2048183E1,1.0385462E1,1.0217731E1,3.071776E1,7.407257E0,8.755909E0,3.2967606E0,0E0,7.1978226E0,1.5361159E1,0E0,5.8582172E0,2.9621716E0,8.348997E0,1.0724836E1,3.8195763E0,4.1822405E0,5.597351E0,4.4953346E0,1.4054237E1,1.33873E1,4.8472366E0,7.2411995E0,0E0,3.3576035E0,3.0419374E0,7.2562575E0,7.2445755E0,4.39861E0,3.4435902E0,0E0,1.6209745E0,2.8323493E0,1.2110653E0,5.2304883E0,6.4427996E0,6.636192E0,1.3328936E1,0E0,1.15164585E1,1.3216252E1,4.535395E0,8.0862427E-1,4.649412E0,4.973589E0,1.9995407E0,2.3116999E0,0E0,0E0,0E0,0E0,0E0,0E0,0E0,0E0,0E0,0E0,0E0,0E0,0E0,0E0,0E0,0E0,0E0,0E0,0E0,0E0,0E0,0E0,0E0,0E0,0E0,0E0,0E0,0E0,0E0,0E0,0E0,0E0,0E0,0E0,0E0,0E0,0E0,0E0,0E0,0E0],"parents":[2147483647,0,0,1,1,2,2,3,3,4,4,5,5,6,6,7,7,8,8,10,10,11,11,13,13,14,14,15,15,16,16,17,17,18,18,19,19,20,20,21,21,22,22,23,23,24,24,26,26,27,27,28,28,29,29,30,30,31,31,33,33,34,34,35,35,36,36,37,37,38,38,39,39,41,41,42,42,43,43,44,44,45,45,46,46,47,47,48,48],"right_children":[2,4,6,8,10,12,14,16,18,-1,20,22,-1,24,26,28,30,32,34,36,38,40,42,44,46,-1,48,50,52,54,56,58,-1,60,62,64,66,68,70,72,-1,74,76,78,80,82,84,86,88,-1,-1,-1,-1,-1,-1,-1,-1,-1,-1,-1,-1,-1,-1,-1,-1,-1,-1,-1,-1,-1,-1,-1,-1,-1,-1,-1,-1,-1,-1,-1,-1,-1,-1,-1,-1,-1,-1,-1,-1],"split_conditions":[5E-1,6.004869E-1,9.99905E-1,3.4148455E-1,7.999071E-1,8.0191684E-1,9.534335E-1,8.029189E-1,5.8615136E-1,-3.2505593E-1,4.9401075E-1,2.4747479E-1,-5.200462E-1,8.3668515E-2,1.9793151E-1,2.512205E-2,5.0063485E-1,4.512195E-1,5.7239056E-1,7.9935646E-1,7.814643E-1,1.6697405E-1,3.4184754E-1,1.25E-1,8.156999E-1,2.8394336E-1,2.0796148E-1,6.25E-1,3.327641E-1,4.933107E-1,5E-1,7.874625E-1,2.401054E-1,3.8955826E-1,2.4871954E-1,2.4222822E-1,1.7306656E-1,8.308358E-1,2.6424492E-2,6.0920453E-1,-4.159581E-1,5.9889215E-1,3.6575475E-1,5E-1,8.535E-1,9.965E-1,8.549765E-1,8.115192E-1,2.916667E-1,3.780544E-2,2.2014931E-1,-1.339607E-1,-2.0672688E-2,3.541555E-2,1.5288365E-1,-1.5044701E-1,3.3821256E-3,-2.2976479E-1,-7.505767E-2,-2.1764457E-1,-1.2435145E-3,-1.2568101E-1,1.4759874E-1,-1.9799954E-1,-1.2582396E-1,1.8155957E-2,-1.3730606E-1,-1.2121286E-1,8.4187165E-3,1.7990786E-1,-2.543767E-2,-1.628605E-1,-6.089773E-3,1.483202E-3,5.947349E-2,-4.296396E-1,-3.6686137E-2,-1.808803E-1,1.6543186E-1,2.4558452E-1,1.3362734E-1,1.3608577E-2,-4.2149416E-1,1.6442919E-1,-6.7312695E-2,7.713917E-2,-1.9843756E-1,2.2064975E-2,2.460037E-1],"split_indices":[7,4,2,1,4,2,9,3,4,0,9,8,0,1,1,1,6,1,8,2,3,8,1,9,8,0,6,9,8,6,0,2,0,1,6,9,1,8,1,3,0,2,1,0,3,3,4,4,8,0,0,0,0,0,0,0,0,0,0,0,0,0,0,0,0,0,0,0,0,0,0,0,0,0,0,0,0,0,0,0,0,0,0,0,0,0,0,0,0],"split_type":[0,0,0,0,0,0,0,0,0,0,0,0,0,0,0,0,0,0,0,0,0,0,0,0,0,0,0,0,0,0,0,0,0,0,0,0,0,0,0,0,0,0,0,0,0,0,0,0,0,0,0,0,0,0,0,0,0,0,0,0,0,0,0,0,0,0,0,0,0,0,0,0,0,0,0,0,0,0,0,0,0,0,0,0,0,0,0,0,0],"sum_hessian":[3.193418E3,1.1835613E3,2.0098567E3,6.959358E2,4.8762546E2,1.7209585E3,2.8889816E2,6.1115967E2,8.477613E1,1.369139E1,4.7393408E2,1.7120592E3,8.899282E0,2.3770963E2,5.1188545E1,3.3543713E2,2.757225E2,5.6124775E1,2.865136E1,1.7873157E2,2.952025E2,2.920631E2,1.4199961E3,5.0852203E1,1.8685742E2,2.1477354E1,2.971119E1,3.4805717E1,3.0063144E2,2.0763507E2,6.808744E1,5.478281E1,1.3419641E0,1.2950125E1,1.5701235E1,1.02002304E2,7.672926E1,1.5213225E2,1.4307027E2,2.8377435E2,8.288743E0,1.2472224E3,1.7277373E2,1.1615988E1,3.9236217E1,1.2354181E2,6.3315613E1,8.062029E0,2.164916E1,2.219988E1,1.2605837E1,6.400694E1,2.3662448E2,1.3531044E2,7.232464E1,2.7323801E1,4.076364E1,3.0331835E1,2.4450974E1,8.230295E0,4.71983E0,3.7828069E0,1.1918427E1,5.0908142E1,5.109416E1,4.0868042E1,3.586122E1,9.987313E1,5.2259117E1,1.4909021E1,1.2816124E2,6.1581146E1,2.221932E2,5.5511707E2,6.921053E2,7.0979934E0,1.6567574E2,5.7671866E0,5.8488007E0,2.6034924E1,1.3201293E1,1.2229095E2,1.2508649E0,5.4060474E1,9.25514E0,5.1905994E0,2.87143E0,5.7813716E0,1.5867789E1],"tree_param":{"num_deleted":"0","num_feature":"11","num_nodes":"89","size_leaf_vector":"0"}},{"base_weights":[-5.0534843E-3,-1.7568934E-1,3.6195613E-2,-1.4536892E-1,-1.2203441E0,1.0422804E-1,-6.2074885E-2,3.7345907E-1,-1.7351317E-1,3.9884932E-2,2.3114157E-1,-1.436764E0,-2.8570352E-2,6.822405E-1,8.592069E-2,-1.2457192E-1,-3.7141168E-1,5.966854E-2,-1.4788288E0,4.0765107E-1,1.19565584E-1,-1.3315153E-1,9.041166E-2,-7.388833E-1,8.6193216E-1,2.443451E-1,-9.181062E-1,-2.7413386E-1,1.0371687E-1,-6.0936505E-1,-2.4754389E-1,-3.0640852E-2,1.7016241E-1,2.881151E-1,6.2592727E-1,-1.4731013E0,1.8573695E-1,-2.5830272E-1,-1.01866545E-2,1.8121785E-1,-1.5702102E-1,1.1289175E-2,1.0257955E0,-1.2385567E-1,4.807091E-1,-5.4993063E-2,-4.4684735E-1,2.1712695E-1,-1.5636007E-1,-5.2308332E-2,-7.1326584E-1,2.313856E-1,-4.3784577E-1,-9.359168E-2,1.5751919E-1,5.9613146E-2,2.9725266E-1,1.9207825E-1,5.7794714E-1,7.848696E-1,3.6413003E-2,-1.2044725E-1,2.4894439E-1,-2.331243E-1,-1.3634049E0,2.3628142E-1,-2.894475E-1,1.285469E-1,4.948064E-1,-3.9028537E-1,-2.1582777E-2],"categories":[],"categories_nodes":[],"categories_segments":[],"categories_sizes":[],"default_left":[1,1,1,1,0,1,1,1,1,1,1,0,1,1,1,1,1,1,0,1,1,1,1,0,1,1,0,1,1,1,1,1,1,1,1,0,1,1,1,1,1,0,0,0,0,0,0,0,0,0,0,0,0,0,0,0,0,0,0,0,0,0,0,0,0,0,0,0,0,0,0],"id":13,"left_children":[1,3,5,7,-1,9,11,13,15,17,19,-1,21,23,25,27,29,31,-1,33,35,37,39,-1,41,43,-1,45,47,49,51,53,55,57,59,-1,61,63,65,67,69,-1,-1,-1,-1,-1,-1,-1,-1,-1,-1,-1,-1,-1,-1,-1,-1,-1,-1,-1,-1,-1,-1,-1,-1,-1,-1,-1,-1,-1,-1],"loss_changes":[2.1920673E1,1.902643E1,1.6775042E1,8.684724E0,0E0,1.2096745E1,4.7246437E1,2.6664271E0,5.3836746E0,2.9681686E1,9.76947E0,0E0,1.2496133E1,4.3793025E0,2.9342525E0,1.5426353E1,3.1106129E0,9.716876E0,0E0,4.84671E0,3.2613792E1,8.220705E0,1.0586868E1,0E0,1.8662434E0,1.4089096E0,0E0,1.029846E1,5.320497E0,2.115612E0,6.887256E0,6.36813E0,6.1341066E0,3.4057264E0,6.2795124E0,0E0,5.7490664E0,7.0496826E0,1.869171E1,5.6220064E0,3.994233E0,0E0,0E0,0E0,0E0,0E0,0E0,0E0,0E0,0E0,0E0,0E0,0E0,0E0,0E0,0E0,0E0,0E0,0E0,0E0,0E0,0E0,0E0,0E0,0E0,0E0,0E0,0E0,0E0,0E0,0E0],"parents":[2147483647,0,0,1,1,2,2,3,3,5,5,6,6,7,7,8,8,9,9,10,10,12,12,13,13,14,14,15,15,16,16,17,17,19,19,20,20,21,21,22,22,24,24,25,25,27,27,28,28,29,29,30,30,31,31,32,32,33,33,34,34,36,36,37,37,38,38,39,39,40,40],"right_children":[2,4,6,8,-1,10,12,14,16,18,20,-1,22,24,26,28,30,32,-1,34,36,38,40,-1,42,44,-1,46,48,50,52,54,56,58,60,-1,62,64,66,68,70,-1,-1,-1,-1,-1,-1,-1,-1,-1,-1,-1,-1,-1,-1,-1,-1,-1,-1,-1,-1,-1,-1,-1,-1,-1,-1,-1,-1,-1,-1],"split_conditions":[2.4994466E-1,9.346355E-5,6.004869E-1,3.010263E-4,-3.6610323E-1,8.332957E-1,7.991889E-1,6.159633E-1,5.004629E-1,7.510513E-1,8.337413E-1,-4.3102923E-1,5E-1,5.705E-1,9.583334E-1,4.9937266E-1,4.9476808E-1,8.0194026E-1,-4.4364867E-1,8.545E-1,9.157638E-1,4.9770665E-1,2.6878697E-1,-2.2166501E-1,3E-1,4.583333E-1,-2.7543187E-1,1.0379908E-3,2.6865327E-1,2.4463868E-1,6.63E-1,6.657239E-1,7.4311125E-1,8.99058E-1,5.0148976E-1,-4.4193038E-1,3.9630944E-1,2.5054526E-1,5.009906E-1,9.9499816E-1,3.4144145E-1,3.3867524E-3,3.0773866E-1,-3.7156705E-2,1.4421274E-1,-1.649792E-2,-1.3405421E-1,6.513809E-2,-4.6908025E-2,-1.56925E-2,-2.1397977E-1,6.941568E-2,-1.3135374E-1,-2.8077506E-2,4.725576E-2,1.7883945E-2,8.91758E-2,5.7623476E-2,1.7338414E-1,2.3546089E-1,1.0923902E-2,-3.6134176E-2,7.4683316E-2,-6.9937296E-2,-4.0902147E-1,7.088443E-2,-8.683425E-2,3.856407E-2,1.4844193E-1,-1.1708561E-1,-6.4748335E-3],"split_indices":[9,9,4,1,0,8,4,4,6,8,8,0,10,3,8,6,8,3,0,3,8,6,1,0,2,8,0,6,1,4,3,8,9,9,6,0,2,6,6,2,1,0,0,0,0,0,0,0,0,0,0,0,0,0,0,0,0,0,0,0,0,0,0,0,0,0,0,0,0,0,0],"split_type":[0,0,0,0,0,0,0,0,0,0,0,0,0,0,0,0,0,0,0,0,0,0,0,0,0,0,0,0,0,0,0,0,0,0,0,0,0,0,0,0,0,0,0,0,0,0,0,0,0,0,0,0,0,0,0,0,0,0,0,0,0,0,0,0,0,0,0,0,0,0,0],"sum_hessian":[3.1124587E3,6.0528925E2,2.5071697E3,5.893236E2,1.5965581E1,1.4814823E3,1.0256873E3,2.9692118E1,5.5963153E2,9.839499E2,4.9753247E2,2.340723E1,1.00228E3,1.36552925E1,1.6036825E1,4.49979E2,1.0965251E2,9.722456E2,1.17043E1,1.916674E2,3.0586505E2,5.333576E2,4.6892242E2,1.1834909E0,1.2471802E1,1.4504767E1,1.5320579E0,2.717457E2,1.7823329E2,3.6197212E1,7.34553E1,5.353849E2,4.3686072E2,1.2534429E2,6.632311E1,1.1352873E1,2.9451218E2,2.6378345E2,2.6957416E2,3.432277E2,1.25694725E2,2.1870966E0,1.0284705E1,5.8569627E0,8.647804E0,1.203556E2,1.5139012E2,1.242274E2,5.4005894E1,5.926445E0,3.027077E1,2.0826279E1,5.2629025E1,4.0154617E2,1.338387E2,2.3441994E2,2.0244078E2,9.5396904E1,2.9947382E1,5.197772E1,1.4345396E1,5.0239685E1,2.4427249E2,2.5909134E2,4.692132E0,1.4327628E2,1.26297874E2,2.9507608E2,4.8151634E1,4.5481167E1,8.021356E1],"tree_param":{"num_deleted":"0","num_feature":"11","num_nodes":"71","size_leaf_vector":"0"}},{"base_weights":[-4.930419E-3,-1.7091349E-1,2.8566718E-2,-1.3814148E-1,-1.0349796E0,3.4520313E-1,1.1754105E-2,-2.6187032E-1,-3.1079797E-2,2.1676767E-1,6.757811E-1,-1.7034281E0,1.6217554E-2,-2.2841641E-1,-1.1878897E0,7.824582E-2,-2.808061E-1,2.5171977E-3,3.7187806E-1,9.7236925E-1,3.6082768E-1,5.69932E-2,-1.294145E-1,-4.8570138E-1,-1.4342654E-1,1.547293E-1,-2.2727579E-1,-1.924581E-1,-7.866785E-1,3.3626324E-1,-2.1614285E-1,1.8441693E-1,5.6970614E-1,5.396666E-1,1.0857283E0,5.76792E-1,-1.2600672E-1,-2.9087614E-2,2.1403226E-1,-1.400589E0,-8.9394726E-2,-2.7729127E-1,-7.074077E-1,-2.792986E-1,4.9192555E-2,6.175947E-2,6.577669E-1,2.2551036E-1,-7.5009733E-1,-6.7273766E-2,-6.699658E-1,1.06406935E-1,-9.145388E-1,-3.874592E-1,8.1644547E-1,4.8563445E-1,-3.8541892E-1,-2.578894E-1,4.5202914E-1,1.0517927E0,4.2353597E-1,8.287214E-1,-3.7452778E-1,9.314561E-1,3.8963032E-1,2.7953762E-1,-9.0120447E-1,-2.5258951E-3,-1.6777217E0,2.93688E-1,2.2904368E-2,4.496355E-2,-1.748171E-1],"categories":[],"categories_nodes":[],"categories_segments":[],"categories_sizes":[],"default_left":[1,1,1,1,0,1,1,1,1,1,1,0,1,1,0,1,1,1,1,1,1,1,1,1,1,1,1,1,1,1,1,1,1,1,0,1,1,1,1,0,1,0,0,0,0,0,0,0,0,0,0,0,0,0,0,0,0,0,0,0,0,0,0,0,0,0,0,0,0,0,0,0,0],"id":14,"left_children":[1,3,5,7,-1,9,11,13,15,17,19,-1,21,23,-1,25,27,29,31,33,35,37,39,41,43,45,47,49,51,53,55,57,59,61,-1,63,65,67,69,-1,71,-1,-1,-1,-1,-1,-1,-1,-1,-1,-1,-1,-1,-1,-1,-1,-1,-1,-1,-1,-1,-1,-1,-1,-1,-1,-1,-1,-1,-1,-1,-1,-1],"loss_changes":[1.7039118E1,1.442939E1,1.35714855E1,6.574918E0,0E0,5.3111744E0,1.8574E1,6.8662615E0,7.326756E0,3.124504E0,2.9647827E0,0E0,1.4361784E1,4.8198423E0,0E0,4.4019246E0,3.499362E0,3.0283556E0,1.9177895E0,2.817974E-1,2.04977E0,2.554466E1,2.6789852E1,2.3499823E0,4.449861E0,6.9770017E0,9.122204E0,4.1909685E0,1.4471602E0,6.0236607E0,3.1663423E0,3.606687E0,1.3909369E0,1.806237E0,0E0,5.136428E-1,2.3265567E0,5.347203E1,1.0178833E1,0E0,5.9070606E0,0E0,0E0,0E0,0E0,0E0,0E0,0E0,0E0,0E0,0E0,0E0,0E0,0E0,0E0,0E0,0E0,0E0,0E0,0E0,0E0,0E0,0E0,0E0,0E0,0E0,0E0,0E0,0E0,0E0,0E0,0E0,0E0],"parents":[2147483647,0,0,1,1,2,2,3,3,5,5,6,6,7,7,8,8,9,9,10,10,12,12,13,13,15,15,16,16,17,17,18,18,19,19,20,20,21,21,22,22,23,23,24,24,25,25,26,26,27,27,28,28,29,29,30,30,31,31,32,32,33,33,35,35,36,36,37,37,38,38,40,40],"right_children":[2,4,6,8,-1,10,12,14,16,18,20,-1,22,24,-1,26,28,30,32,34,36,38,40,42,44,46,48,50,52,54,56,58,60,62,-1,64,66,68,70,-1,72,-1,-1,-1,-1,-1,-1,-1,-1,-1,-1,-1,-1,-1,-1,-1,-1,-1,-1,-1,-1,-1,-1,-1,-1,-1,-1,-1,-1,-1,-1,-1,-1],"split_conditions":[3.999468E-1,2.0029117E-1,3.010263E-4,6.6556954E-1,-3.104939E-1,8.2323074E-1,2.3848671E-2,5.8392483E-1,2.441881E-1,5E-1,6.159633E-1,-5.1102847E-1,5.0063485E-1,6.469195E-1,-3.5636693E-1,9.168924E-1,8.004526E-1,5E-1,5E-1,6.57E-1,9.583334E-1,4.9951074E-1,7.493317E-1,5E-1,7.226093E-1,9.896041E-1,6.289885E-1,3.6628506E-1,6.938983E-1,3.75E-1,1.25E-1,5E-1,5E-1,6.1899996E-1,3.257185E-1,6.4900005E-1,8.425E-1,2.501188E-1,2.6865327E-1,-4.201767E-1,4.0171498E-1,-8.318739E-2,-2.1222232E-1,-8.378959E-2,1.4757767E-2,1.8527841E-2,1.9733007E-1,6.765311E-2,-2.2502922E-1,-2.018213E-2,-2.0098975E-1,3.1922083E-2,-2.7436164E-1,-1.1623776E-1,2.4493365E-1,1.4569034E-1,-1.1562568E-1,-7.736682E-2,1.3560875E-1,3.1553784E-1,1.270608E-1,2.4861643E-1,-1.1235834E-1,2.7943683E-1,1.168891E-1,8.386129E-2,-2.7036136E-1,-7.577686E-4,-5.033165E-1,8.81064E-2,6.8713105E-3,1.3489066E-2,-5.2445132E-2],"split_indices":[2,2,1,8,0,8,1,8,1,7,4,0,6,3,0,8,4,0,10,3,8,6,6,10,9,4,4,1,8,6,9,0,2,3,0,3,3,6,1,0,4,0,0,0,0,0,0,0,0,0,0,0,0,0,0,0,0,0,0,0,0,0,0,0,0,0,0,0,0,0,0,0,0],"split_type":[0,0,0,0,0,0,0,0,0,0,0,0,0,0,0,0,0,0,0,0,0,0,0,0,0,0,0,0,0,0,0,0,0,0,0,0,0,0,0,0,0,0,0,0,0,0,0,0,0,0,0,0,0,0,0,0,0,0,0,0,0,0,0,0,0,0,0,0,0,0,0,0,0],"sum_hessian":[3.0627349E3,5.1361206E2,2.5491228E3,4.9596124E2,1.7650774E1,1.2754281E2,2.42158E3,2.2940126E2,2.6656E2,9.304779E1,3.4495014E1,5.2973914E0,2.4162827E3,2.2260593E2,6.7953286E0,1.858743E2,8.06857E1,3.9501495E1,5.3546295E1,1.6690454E1,1.7804562E1,1.8882098E3,5.280729E2,5.410429E1,1.6850165E2,1.4905405E2,3.6820248E1,6.986465E1,1.0821052E1,1.5423066E1,2.407843E1,2.848563E1,2.5060665E1,4.6607184E0,1.20297365E1,1.2205365E1,5.5991955E0,1.2201826E3,6.6802716E2,1.5079986E1,5.1299286E2,2.9048557E1,2.5055735E1,9.854132E1,6.996032E1,1.2675108E2,2.2302967E1,2.0036465E1,1.6783783E1,5.6257072E1,1.3607574E1,1.3762106E0,9.444841E0,6.2285705E0,9.194496E0,4.3160887E0,1.9762342E1,1.0751692E1,1.7733938E1,4.3891273E0,2.0671537E1,3.6121159E0,1.0486023E0,2.8423946E0,9.36297E0,4.0958514E0,1.5033444E0,1.2018212E3,1.8361427E1,4.7113657E2,1.9689064E2,1.9956956E2,3.134233E2],"tree_param":{"num_deleted":"0","num_feature":"11","num_nodes":"73","size_leaf_vector":"0"}},{"base_weights":[-4.842512E-3,-4.019744E-2,1.440559E-1,-2.993139E-2,-1.4373723E0,1.0393629E-1,3.8363606E-1,-1.09325446E-1,5.6326754E-2,1.09306104E-1,-1.1726724E0,1.9733183E-1,5.649182E-1,-1.3053054E-1,1.973353E-1,-2.8405659E-2,1.3412675E-1,-2.2264787E-3,1.6772096E-1,3.0603966E-1,-2.2506909E-1,9.0002203E-1,3.4062698E-1,4.5017783E-2,-1.6656497E-1,-3.3173808E-1,4.855015E-1,-1.2085965E-2,-1.1842115E0,2.6362094E-1,3.9348483E-2,1.9825017E-2,-1.1261138E0,6.0063434E-1,1.44165E-1,6.172602E-1,1.941975E-1,-1.1165385E0,2.17249E-1,-1.2774532E-1,5.27101E-1,-1.19577214E-1,1.5077554E-1,-1.2780058E0,-1.535886E-1,-5.708912E-1,-4.7543056E-2,-8.446183E-2,6.638048E-1,-1.5381077E-1,4.5851547E-2,1.4087452E-1,4.6836475E-1,-1.2769064E0,5.6654833E-2,9.982855E-2,-2.6850325E-1,9.5557165E-1,-3.5395782E-2,-5.0788087E-1,1.6797608E-1,6.329303E-2,9.776872E-1,-3.896134E-1,2.7994344E-1,-1.3768849E-1,-1.59702E0,4.9389178E-1,-4.7402298E-1,-3.7643978E-1,6.546964E-1,5.1323466E-2,7.4014527E-1],"categories":[],"categories_nodes":[],"categories_segments":[],"categories_sizes":[],"default_left":[1,1,1,1,0,1,1,1,1,1,0,1,1,1,1,1,1,1,1,1,1,0,1,1,1,1,1,1,0,1,1,1,0,1,1,1,1,1,1,1,1,0,0,0,0,0,0,0,0,0,0,0,0,0,0,0,0,0,0,0,0,0,0,0,0,0,0,0,0,0,0,0,0],"id":15,"left_children":[1,3,5,7,-1,9,11,13,15,17,-1,19,21,23,25,27,29,31,33,35,37,-1,39,41,43,45,47,49,-1,51,53,55,-1,57,59,61,63,65,67,69,71,-1,-1,-1,-1,-1,-1,-1,-1,-1,-1,-1,-1,-1,-1,-1,-1,-1,-1,-1,-1,-1,-1,-1,-1,-1,-1,-1,-1,-1,-1,-1,-1],"loss_changes":[1.5915948E1,3.5000057E1,5.5363455E0,1.6622663E1,0E0,3.5440788E0,2.6864176E0,8.243828E0,7.6742077E0,3.2392182E0,0E0,2.0154562E0,2.8088694E0,7.488657E0,1.26833725E1,1.0506959E1,7.4366484E0,4.2816005E0,3.2405539E0,1.0684288E0,3.8911846E0,0E0,2.3765504E0,3.537805E0,1.3958559E1,1.9816282E0,5.50111E0,4.5317E0,0E0,6.373913E0,8.079862E0,3.9375296E0,0E0,3.7634416E0,4.909892E0,1.6484635E0,1.4392983E0,1.2999201E0,1.5769045E0,1.8681314E0,1.898603E0,0E0,0E0,0E0,0E0,0E0,0E0,0E0,0E0,0E0,0E0,0E0,0E0,0E0,0E0,0E0,0E0,0E0,0E0,0E0,0E0,0E0,0E0,0E0,0E0,0E0,0E0,0E0,0E0,0E0,0E0,0E0,0E0],"parents":[2147483647,0,0,1,1,2,2,3,3,5,5,6,6,7,7,8,8,9,9,11,11,12,12,13,13,14,14,15,15,16,16,17,17,18,18,19,19,20,20,22,22,23,23,24,24,25,25,26,26,27,27,29,29,30,30,31,31,33,33,34,34,35,35,36,36,37,37,38,38,39,39,40,40],"right_children":[2,4,6,8,-1,10,12,14,16,18,-1,20,22,24,26,28,30,32,34,36,38,-1,40,42,44,46,48,50,-1,52,54,56,-1,58,60,62,64,66,68,70,72,-1,-1,-1,-1,-1,-1,-1,-1,-1,-1,-1,-1,-1,-1,-1,-1,-1,-1,-1,-1,-1,-1,-1,-1,-1,-1,-1,-1,-1,-1,-1,-1],"split_conditions":[9.9945474E-1,7.50399E-1,9.936099E-1,5E-1,-4.312117E-1,8.2232094E-1,5E-1,9.8450005E-1,4.988436E-1,4.9525487E-1,-3.5180172E-1,8.965E-1,1.9793151E-1,2.0001864E-1,5.953597E-1,2.544019E-1,1.4732313E-1,4.1762275E-1,5.3849995E-1,1.0596981E-1,9.26E-1,2.7000663E-1,2.916667E-1,5E-1,3.9858055E-1,3.999468E-1,3.9425313E-1,5.9958935E-1,-3.5526347E-1,8.3462554E-1,1.6956568E-1,8.0197954E-1,-3.3783415E-1,8.488945E-1,5.5781806E-1,5E-1,1.25E-1,5E-1,9.92E-1,6.25E-1,1.25E-1,-3.5873167E-2,4.523266E-2,-3.8340178E-1,-4.607658E-2,-1.7126736E-1,-1.4262917E-2,-2.5338551E-2,1.9914146E-1,-4.6143234E-2,1.3755465E-2,4.2262357E-2,1.4050943E-1,-3.8307193E-1,1.699645E-2,2.9948566E-2,-8.0550976E-2,2.8667152E-1,-1.0618735E-2,-1.5236427E-1,5.0392825E-2,1.898791E-2,2.9330617E-1,-1.1688402E-1,8.3983034E-2,-4.1306548E-2,-4.7910604E-1,1.4816754E-1,-1.422069E-1,-1.1293194E-1,1.9640893E-1,1.539704E-2,2.2204359E-1],"split_indices":[9,9,2,10,0,2,7,3,9,8,0,3,1,4,2,9,1,8,3,1,3,0,8,7,4,2,4,2,0,3,1,4,0,8,3,10,8,10,3,6,6,0,0,0,0,0,0,0,0,0,0,0,0,0,0,0,0,0,0,0,0,0,0,0,0,0,0,